437 100 
substance -0.26817 -0.20917 0.25414 -0.12776 -0.030725 -0.50231 -0.58849 0.092871 0.099003 -0.27193 -0.27278 0.24995 0.034459 -0.2806 -0.22918 0.1634 -0.26446 -0.043121 -0.58874 -0.13313 0.073992 -0.35379 0.016549 0.29445 -0.027844 0.0466 0.038834 0.16496 -0.54874 -0.1761 0.047846 0.028429 -0.061427 -0.23259 -0.58484 0.0046215 0.27627 -0.28865 -0.16044 -0.29789 -0.090564 0.48844 0.16836 -0.23844 0.10409 -0.21522 -0.26597 0.26087 0.14177 0.028716 -0.051361 -0.11694 0.0095754 0.69839 -0.096964 0.24617 0.15235 -0.45736 -0.055762 0.50031 0.37709 -0.010546 -0.09721 0.24819 0.36815 -0.50954 -0.15176 -0.14159 -1.3068 -0.37701 0.46946 -0.41567 0.45236 -0.83445 -0.1776 -0.037396 -0.11385 0.36606 -0.030662 0.099216 0.66061 -0.1505 0.28707 0.04278 0.12281 0.17375 -0.21335 0.35415 0.18788 0.21219 0.1525 -0.024967 0.39853 0.32685 -0.43728 0.10241 -0.044314 -0.29267 0.19205 0.33956
territory 0.53476 -0.25564 -0.1852 0.28248 -0.72555 -0.77786 -0.8783 -0.10841 -0.15318 -0.17193 -0.69741 0.56155 -0.14478 0.33112 0.41111 -0.055758 0.19781 -0.31107 -0.3717 -0.21917 -0.34572 0.70639 -0.075493 0.10913 0.37777 -0.19929 0.055492 -0.094066 0.19775 -0.077484 0.045975 0.39649 -0.44524 0.31296 -0.71657 -0.26504 0.26998 -0.28405 -0.5253 -0.43431 -0.43772 -0.070381 0.13688 0.40362 0.02643 0.050304 0.07992 0.68211 -0.48766 -0.32025 0.24592 0.18538 0.10686 0.057572 0.37763 -0.26486 -0.10478 0.31908 -0.059814 0.57693 0.24793 -0.071161 -0.21478 -0.42148 0.45265 -0.4318 -0.14437 -0.2681 0.37854 -0.12855 -0.36996 0.5227 0.4908 0.30971 -0.081495 0.13913 0.19321 0.40285 -0.213 0.15326 0.42116 0.44225 0.19074 -0.12613 0.22142 0.042647 -0.19705 0.19413 -0.30096 -0.17476 -0.33652 -0.69885 0.48801 0.61006 0.18812 0.11597 0.46216 0.24639 0.26404 -0.16183
planning -0.10681 -0.17936 -0.099889 -0.31358 -0.20005 -0.036655 -0.07583 -0.37938 -0.029657 -0.38915 -0.22526 0.14971 -0.02192 0.28466 0.48609 -0.44031 -0.27155 -0.19315 -0.27016 -0.50224 -0.16203 -0.051376 -0.52501 0.28955 0.019239 -0.021074 0.30642 0.34609 0.0056023 0.13732 0.027227 -0.20177 0.035893 0.054037 -0.1893 -0.37634 0.14421 0.28067 0.14359 0.32147 -0.10446 0.21243 -0.31962 0.0078113 0.24794 -0.37987 -0.29995 0.095589 -0.34615 0.22215 0.16715 -0.3126 -0.05221 0.21513 -0.63612 -0.52783 -0.041686 0.32102 0.023446 0.13265 0.35285 -0.081269 -0.083411 0.11119 -0.010112 -0.10042 -0.34056 -0.36964 -0.0077623 -0.35806 0.094604 0.27591 -0.18521 0.029923 0.045594 0.029574 0.1905 0.2364 0.17486 -0.17611 0.24175 0.32333 0.41207 -0.0041494 -0.019601 -0.23913 -0.32685 0.24665 0.81276 0.29732 0.30863 -0.26053 0.19479 0.1749 0.059959 -0.2981 -0.20617 -0.33899 0.022705 -0.57416
percent -0.58937 -0.31722 -0.56455 -0.11183 -0.050464 -0.766 -0.30474 -0.64686 -0.31903 0.19924 0.18368 0.49581 -0.41068 -0.10794 0.10277 -0.6928 0.13654 -0.21434 0.13412 -0.54943 0.45124 0.029378 -0.36225 -0.27337 0.14647 -0.16083 0.66888 0.47854 -0.093252 0.062967 0.14204 1.112 0.13699 0.5221 -0.044837 0.25393 0.53658 0.036873 -0.32669 -0.26507 -0.4876 0.030242 0.37068 0.043286 -0.14789 -0.24754 0.38624 0.27738 0.31068 -0.14891 -0.20425 -0.076853 -0.33136 -0.52982 0.18597 -0.17124 -0.098016 0.1109 0.1618 0.054849 0.94447 0.18955 -0.14774 0.16766 0.68576 -0.472 -0.46078 0.29997 0.40168 0.34745 -0.31828 -0.34401 -0.087934 -0.16856 -0.089195 0.32595 0.15631 0.25397 -0.48125 0.4262 0.30342 -0.03103 -0.29487 0.39916 0.23732 0.54262 -0.13197 0.5578 0.077501 0.016513 0.49587 -0.61081 -0.022391 -0.18741 -0.54039 0.20858 0.17314 -0.70703 0.43094 -0.31288
century -0.33915 0.39018 0.32991 0.011548 -0.27338 -0.075146 -0.40821 -0.1544 -0.51501 -0.73076 -0.58968 -0.22209 -0.27394 0.015433 -0.23145 -0.33857 0.52217 -0.34904 0.28568 -0.4038 -0.12045 -0.15707 -0.95066 0.27886 0.13714 0.094873 0.34569 0.20503 0.62831 0.56576 0.11108 0.29898 -0.19629 -0.00096265 -0.38787 0.2313 -0.35024 -0.28773 -0.085244 0.045715 -0.27302 -0.12124 0.27704 0.2438 0.226 0.26516 0.70083 -0.22834 -0.17457 0.092945 0.53351 -0.3429 0.26762 0.2545 0.86454 -0.34343 -0.34773 -0.072314 0.093977 0.19823 0.71462 0.57177 0.67256 -0.062592 0.29345 -0.24793 -0.39701 -0.29438 -0.44418 -0.20206 -0.032971 0.67498 0.47119 0.2117 0.36582 0.031931 -1.0795 0.076725 0.13899 -0.62444 -0.23067 0.52545 0.3532 0.40465 0.32418 0.11371 0.04084 0.50586 0.19985 0.013419 0.11377 -0.57394 0.15669 -0.048254 0.20066 0.0035479 0.31604 -0.15171 0.20893 0.41872
motto 0.1863 0.34835 0.06873 -0.39812 0.60938 0.23656 -0.37395 -0.33074 -0.31551 0.19847 -0.093074 0.36837 -0.14426 0.34191 0.46216 -0.23761 0.0385 -0.77884 0.22469 -0.81583 0.27785 0.35399 -0.15325 0.36181 0.066734 0.026267 -0.13859 0.39418 -0.011983 0.37465 0.43275 -0.49739 -0.37157 -0.059238 -0.025526 -0.28153 -0.10274 0.19184 -0.15948 -0.062345 0.28336 0.034468 0.12234 -0.2384 0.72772 -0.015348 0.12036 0.39601 -0.098641 -0.069414 0.6056 -0.5429 -0.54586 0.70681 0.35869 0.19994 0.072885 -0.1782 -0.055071 0.27549 0.6839 -0.2155 0.058153 0.12957 0.44729 -0.099549 -0.24007 -0.021061 -0.10908 -0.54162 0.18328 -0.30197 1.0078 0.31203 -0.50192 0.1251 0.44686 -0.38842 0.097875 -0.082549 0.1917 -0.11572 0.13582 0.30544 0.14769 -0.37227 -0.22248 -0.075525 0.14382 0.33906 0.1793 -0.2267 0.49618 -0.16581 -0.15084 -0.020993 -0.35818 0.18537 -0.028663 -0.21105
psychology -0.22864 -0.11384 -0.14313 0.157 -0.28252 0.44167 0.24353 0.1358 -0.37272 0.23604 -1.1727 1.0901 0.0068772 0.083881 0.13315 -0.029949 -0.38173 -0.49586 -0.22454 0.069648 0.17139 -0.11412 -0.16929 -0.14443 -0.80603 0.56745 0.57929 -0.33653 -0.36501 0.27122 -0.07988 0.6155 0.42885 -0.038445 -0.82571 0.10378 -0.4068 -0.34795 0.23212 -0.3342 -0.59277 0.22664 -0.059542 -0.20996 0.37787 -0.46251 0.35827 0.54306 0.051545 0.5666 0.25813 0.095547 0.66044 0.67292 -0.30934 0.21747 0.17463 0.19243 0.12129 0.14107 0.55537 -0.21636 0.52917 -0.030379 0.97088 -0.052138 -0.13469 -0.30385 -0.61125 -0.090837 0.3333 0.38735 0.53762 -0.6761 0.14427 0.28472 0.080911 0.13179 -0.29517 -0.22102 -0.038692 -0.094288 0.17362 -0.07447 0.049918 0.23108 -0.40941 -0.34576 0.29995 -0.2898 -0.043296 0.254 -0.2125 0.23832 -0.2027 -0.24303 -0.13455 0.41917 0.33547 0.25872
stupid 0.11733 -0.55488 0.29838 -0.099935 -0.23412 0.17402 -0.0091115 0.25075 0.35096 0.36629 -0.54362 0.031999 0.036153 0.5277 0.27856 -0.30885 0.62926 -0.70764 0.13747 -0.047596 0.043064 0.12578 0.14913 0.27137 -0.090859 0.4663 0.23336 -0.42076 0.069617 0.78928 0.46447 0.017417 -0.23443 -0.12559 -0.37366 -0.55805 0.25566 0.030286 -0.11851 -0.23603 0.066286 -0.12824 -0.16433 -0.42016 0.37757 -0.11203 0.25522 0.35129 -0.22179 0.00080601 0.18484 -0.60155 -0.3024 0.31967 0.084903 0.087454 0.058451 0.42649 0.30654 0.45698 0.047777 0.14092 0.32934 0.073722 0.60281 -0.6236 -0.80025 -0.098941 -0.7602 -0.24498 -0.08767 -0.2348 0.71605 -0.027483 -0.85706 0.068403 0.0088391 -0.19784 0.033716 0.32521 0.77091 0.18828 -0.016583 0.25255 -0.16494 0.25041 -0.36243 -0.38738 0.60898 0.45106 0.49625 -0.53681 -0.052722 0.0087293 -0.37143 -0.56132 -0.062562 -0.15595 -0.18808 0.46411
american -0.23515 -0.10542 -0.060629 0.094949 0.36213 0.16278 -0.58782 0.29623 -0.21413 0.042908 -0.86448 0.26221 0.08553 0.36895 0.38627 -0.012297 0.52959 -0.27363 0.18493 -0.23169 -0.19359 0.56386 0.34346 -0.12892 0.10084 -0.027381 -0.051245 -0.37858 -0.29889 0.55765 0.037994 0.5686 -0.46835 0.14806 -0.6174 -0.41319 -0.2389 0.052331 0.096174 0.052564 -0.029484 0.063268 -0.0030723 -0.34686 0.58415 -0.31139 0.25183 0.1284 -0.32669 0.37229 0.8142 -0.60756 -0.23835 0.16229 -0.047573 -0.10121 0.010982 0.083571 -0.21977 0.02923 0.19916 -0.2313 0.068997 0.3286 0.52384 -0.20367 -0.32694 -0.32638 -0.25892 0.085643 -0.17397 -0.027716 0.61519 0.23882 -0.54584 0.59351 -0.081685 -0.26578 -0.41997 -0.051013 0.47595 0.1827 -0.22855 0.24033 -0.018267 -0.11217 -0.41242 -0.25336 0.43128 0.33519 0.0041275 -0.72142 0.091712 0.19256 -0.1712 0.056265 -0.38919 -0.37497 -0.58181 0.5558
five -0.31621 0.10216 -0.16045 0.55064 0.11491 0.046054 -0.11887 -0.32172 -0.17774 -0.32824 -0.12292 -0.22139 -0.2606 0.3971 0.26855 -0.091576 -0.054094 -0.23569 -0.064328 -0.06533 -0.069413 -0.20093 -0.40261 -0.30198 0.17353 -0.20064 0.30481 0.39855 0.20282 -0.1608 0.09581 -0.2344 0.3721 -0.31342 -0.19236 -0.24171 0.42567 0.10024 0.02568 -0.10643 -0.51656 0.065124 0.052138 0.43616 0.079964 -0.24702 0.14179 0.44885 -0.023118 0.16382 0.035699 0.27902 0.12619 0.23613 0.29405 0.11258 -0.057683 -0.074018 -0.15192 -0.091311 0.6209 -0.13871 -0.2317 -0.095232 0.17073 0.084444 -0.30304 -0.12828 0.011893 -0.036436 -0.30649 -0.1392 -0.026856 -0.4073 -0.2372 0.52877 -0.16459 0.15705 -0.32509 0.36305 0.082103 0.42019 0.27967 -0.15311 -0.0084264 -0.18075 0.23589 0.72358 -0.086899 0.072895 0.2378 -0.42415 0.14246 -0.13042 -0.10282 -0.80187 -0.14806 -0.37771 0.028374 0.13387
ticket 0.053657 -0.39919 0.17827 -0.12763 -0.30976 0.40057 -0.85526 -0.36731 0.053589 0.092906 -0.20392 -0.079658 0.32782 0.60403 0.27542 -0.40161 0.069856 -0.27346 0.03665 -0.59291 -0.45503 0.27068 0.1513 0.3963 0.40174 -0.49951 -0.18363 -0.2434 0.11099 0.42989 -0.091058 0.30911 0.21363 -0.012841 -0.19295 -0.27533 0.30312 0.33213 -0.0813 0.15862 -0.021202 0.4373 0.4123 -0.50666 0.17678 -0.20602 0.11451 1.0101 -0.060071 0.11853 0.13944 0.17859 -0.45798 -0.08002 -0.22767 0.61013 0.073252 -0.15117 -0.3705 -0.12248 0.52968 -0.57257 0.2859 -0.049764 0.29999 0.055468 0.021393 0.26316 -0.32468 0.19229 -0.097685 -0.43647 0.029281 -0.051437 0.051874 -0.20183 0.30593 -0.33522 -0.49614 0.89054 0.093154 -0.62142 0.5063 0.18376 0.86464 0.17781 -0.96456 0.4205 -0.021132 0.19308 -0.29578 -0.069334 -0.0047967 0.37749 0.15754 -0.20013 0.24309 -0.47224 0.0082361 -0.53767
cash -0.31438 -0.53062 0.41936 -0.5645 -0.24065 -0.18514 0.084269 -0.71536 0.44607 0.10695 -0.036307 0.382 0.27567 -0.1004 -0.14307 -0.14484 -0.52143 -0.16014 -0.35587 -0.4936 -0.10572 0.1925 0.13268 0.0857 0.29738 -0.29273 1.0127 0.040622 0.096583 0.31919 0.074709 0.29882 -0.11573 -0.18434 0.12129 -0.34867 0.17042 -0.35464 0.68896 0.26154 0.094381 0.22544 0.3984 -0.067944 -0.11091 0.1275 -0.23071 0.73491 -0.20474 -0.077573 -0.005375 -0.22379 0.31651 -0.069475 0.11248 0.67638 -0.023945 0.17802 -0.26281 -0.26324 0.42092 0.045496 0.23786 0.098322 0.26127 -0.37051 0.15744 -0.076858 -0.34263 0.0025888 0.15411 -0.42597 -0.020343 -0.1415 -0.27194 -0.21603 0.39462 0.094306 -0.80087 0.53402 0.88297 0.095015 0.58855 0.26575 0.044111 0.1499 -0.13045 0.13763 0.068164 0.31242 -0.38481 -0.72392 -0.16757 0.22044 0.59351 -0.17936 0.078219 -0.30423 -0.26213 -0.43585
internet -0.68751 0.2377 0.27791 -0.56204 -0.48367 0.28616 -0.35629 0.28682 0.096259 -0.057272 -0.51023 0.40544 0.10443 0.66774 0.68352 -0.36182 0.38452 -0.48201 0.055879 0.015749 -0.053328 0.25354 0.10324 0.28258 0.070405 -0.36876 0.31834 0.28375 0.22649 -0.13617 -0.54477 0.34324 -0.087002 -0.123 0.19052 -0.10461 -0.050961 -0.42587 0.19455 -0.10511 -0.12969 0.14483 0.30706 -0.35451 0.34888 -0.031434 0.37558 0.012696 0.22529 0.27347 0.14464 0.26981 0.45816 0.35921 0.085978 0.46573 0.054185 -0.075648 -0.30081 -0.032725 0.29344 -0.36881 0.42708 -0.29739 -0.11242 -0.050378 -0.63936 -0.18457 -0.097083 -0.67385 -0.32668 0.10625 0.04926 0.078255 -0.97082 -0.19586 -0.31427 0.28702 0.20377 0.15901 0.23862 -0.33076 0.838 -0.052526 0.03237 0.37817 -0.091533 -0.012283 0.44314 0.19862 0.11918 -0.70457 0.50068 0.47351 0.26911 -0.11333 0.35556 -0.50227 0.22235 -0.2731
abuse -0.29405 0.83183 0.26663 0.065145 -0.032579 -0.21847 -0.35296 0.025071 0.58644 0.37713 -0.67048 -0.33632 0.23388 0.071167 -0.13971 -0.25665 -0.073387 -0.34459 -0.45586 -0.46008 -0.21137 -0.020895 0.18951 0.21387 -0.32518 0.085564 0.13045 -0.011201 -0.073299 -0.56888 -0.28369 0.05273 0.39934 -0.075219 -0.63664 0.084921 0.3162 -0.10224 0.15848 -0.22153 -0.73505 0.088278 -0.29235 -0.58789 0.070554 -0.45583 -0.11187 0.74748 0.10729 0.22945 0.54371 0.21594 0.30491 0.59238 0.078217 -0.17433 0.426 -0.50137 0.16337 -0.10679 1.3127 0.14934 -0.15518 -0.42184 0.40633 -0.38494 0.34561 -0.50544 -0.79044 -0.19826 0.30979 0.3339 0.17702 -0.59204 -0.4153 0.25213 -0.16857 0.57217 0.046503 0.034591 0.40986 -0.082046 0.53913 0.40357 -0.2506 0.1204 0.19603 -0.093101 0.44516 -0.17991 0.47399 -0.17688 -0.080894 0.12175 -0.44994 0.0058086 0.06223 -0.050264 0.1418 -0.23431
cabbage -0.28703 -0.074791 -0.12356 0.077631 0.79197 -0.23344 -0.49431 -0.37917 -0.40908 -0.041167 -0.60199 0.42192 -0.093248 -0.29505 -0.66458 -0.24658 0.14404 -0.39489 -0.38208 -0.666 -0.37109 -0.054891 -0.42207 0.2632 -0.24017 -0.20777 0.19429 0.17057 0.25122 0.54117 0.070218 0.13353 -0.02591 0.093556 0.018272 0.51357 0.50107 -0.08455 -0.25052 0.038656 0.77658 0.424 0.91312 -0.5921 0.49053 0.062715 0.14399 0.40262 0.018217 -0.38829 -0.1068 0.11289 0.23236 0.03933 0.20444 0.079659 -0.10664 -0.028847 -0.18854 0.86917 0.23306 -0.19541 0.27338 -0.061056 0.5116 0.30808 -0.32124 -0.53728 -0.65043 -0.3089 0.077531 -0.051463 0.8694 0.27432 -0.57657 0.19531 -0.20795 -0.15475 -0.2875 0.17684 0.56491 -0.17011 -0.19245 0.12106 0.47431 -0.19414 -0.083379 0.26852 -0.13807 0.28479 -0.38703 -0.90685 0.40141 0.033103 -0.046135 0.30356 -1.0358 -0.27633 -0.23505 0.37805
egg -0.25985 0.11181 0.10256 0.032733 0.72645 -0.51073 -0.32281 -0.72853 0.13879 -0.65085 -0.096106 0.64657 0.1457 -0.013926 -0.61307 -0.024783 -0.11379 -0.69757 -0.010912 -0.3365 -0.36046 0.50384 -0.42198 0.25273 0.045317 -0.52254 0.52985 0.27918 0.053026 0.55674 -0.18118 -0.28724 0.25793 0.22047 0.55881 -0.049202 0.2119 -0.6206 -0.18335 -0.41096 0.84884 0.6243 1.0644 -0.23181 0.51971 0.33915 0.31195 0.65107 -0.011359 0.015841 0.0143 0.12558 -0.25532 0.13017 0.17546 -0.019128 -0.08634 0.0073111 -0.26665 0.40104 -0.3665 -0.030002 0.29928 0.37664 0.95903 -0.032455 -0.34876 -0.123 -0.61009 -0.18914 -0.61583 -0.26573 0.51426 -0.54553 -1.13 0.24829 -0.18737 0.32327 -0.070525 0.20286 0.56288 0.20383 0.9463 -0.087463 0.21782 -0.29625 0.27452 -0.13294 0.1934 0.39166 0.34932 -0.23697 -0.071763 0.20421 0.21532 0.26315 -0.3742 -0.10522 -0.21479 0.15724
dividend -0.42481 -0.41557 -0.12526 -0.63139 0.0029117 -0.52872 -0.37143 -0.77755 0.18648 -0.12148 -0.70299 0.26649 -0.20715 -0.32994 -0.49279 -0.22323 0.029359 -0.48508 -0.38192 -0.4883 0.87579 0.35547 -0.16767 0.08049 -0.28782 -0.68982 0.49593 0.54798 0.31114 0.4948 -0.39726 0.65144 -0.25031 -0.22461 -0.072476 -0.24146 -0.16427 -0.46473 -0.096654 0.39524 0.10922 0.21481 0.77499 0.20657 -0.0835 0.11558 -0.40338 0.52805 0.52492 -0.0025277 0.0043723 -0.17023 0.51215 -0.52796 0.27243 0.0072376 -0.27705 0.39899 0.14943 -0.020203 0.43539 0.12406 -0.021121 0.94943 0.48317 -0.55611 -0.23024 -0.82717 0.29996 0.33157 0.12244 -0.4357 0.25164 0.18832 -0.17652 0.63085 0.15301 0.31688 -0.7886 1.1657 0.46445 0.78509 0.69188 1.0207 -0.064745 0.51043 -0.13084 -0.039133 -0.13006 -0.13605 -0.33296 -0.51131 -0.34903 0.14063 0.097336 0.045551 0.21391 -0.37164 -0.38039 -0.69031
health -0.74321 0.29386 -0.30682 0.18526 0.087271 -0.4574 -0.29851 -0.062763 -0.039537 -0.094085 -0.47845 0.24533 -0.14417 0.40983 0.34606 0.065343 -0.13172 0.08185 -0.1701 0.15718 0.40959 -0.35888 0.20886 0.23337 0.015321 -0.38001 0.56812 0.046495 -0.52748 0.14107 -0.36121 0.61062 0.46161 0.40156 -0.050998 -0.15353 0.2199 -0.19908 0.17285 0.068093 0.19429 0.46692 0.28432 -0.70613 0.15675 -0.22751 -0.020511 0.45105 0.37986 0.11558 0.86262 -0.13835 -0.47871 0.35923 -0.18476 0.64522 -0.089646 -0.0051793 0.49827 -0.060502 0.71594 0.23305 0.042292 0.10399 0.34044 -0.19127 -0.34102 -0.74503 -0.25718 -0.47842 -0.15359 0.42784 -0.049107 -0.0094043 -0.43659 0.25349 0.20226 0.36521 0.10613 0.080347 0.016991 0.25821 0.22199 0.17454 -0.3912 -0.26876 -0.74516 0.21225 0.32461 0.1137 -0.018302 -0.14735 0.26664 -0.015398 -0.67381 0.1354 -0.18663 0.00046505 0.060748 0.11554
troops 0.074002 0.86842 0.6305 -0.090973 0.048358 -0.032907 0.052553 0.051462 0.82747 0.2022 -1.1593 0.24138 -0.012654 0.37098 0.3923 0.004898 -0.15515 -0.45494 -0.16441 -0.28223 0.11393 0.18176 -0.6633 -0.15686 0.15835 0.039944 0.48574 -0.33421 0.41637 -0.024084 -0.18596 0.48543 -0.22865 -0.16776 0.18238 -1.3187 0.88257 -0.079149 -0.44413 -0.15344 -0.22385 -0.06202 0.10421 0.53282 0.51533 -0.46921 -0.03031 1.0511 -0.75143 -0.46609 -0.36983 -0.64982 0.092069 -0.0042478 0.35816 -0.30499 -0.061718 0.43282 0.17863 0.48099 0.40554 -0.0094014 -0.058772 0.443 0.68788 -0.15414 0.19449 -0.15466 0.13289 -0.26073 -0.36352 0.49087 0.095487 0.33649 0.11392 0.24872 0.075756 0.21777 -0.26888 0.29062 0.5755 0.28781 0.45922 -0.15756 -0.31 -0.19341 -0.6245 0.28817 -0.81891 0.17493 -0.47403 -0.70876 0.22958 0.21002 0.031047 0.40125 -0.17529 0.0054274 -0.036001 -0.29093
nation -0.70448 0.37422 0.20851 0.27358 -0.19429 -0.064643 -0.22723 -0.7195 -0.40711 0.080632 -0.45062 0.028949 -0.43666 0.16452 0.29129 -0.30482 0.50477 -0.5139 -0.21829 0.1245 -0.14459 -0.025666 0.10247 -0.10266 0.10581 -0.17497 0.029044 0.41472 -0.29051 0.39719 -0.0010764 0.255 -0.14547 0.59627 -0.20757 -0.5662 -0.35041 -0.35065 0.10579 0.090314 -0.094941 0.052373 0.51766 0.2074 0.029444 0.09359 0.10922 0.080281 0.01693 -0.30127 0.67553 -0.33244 -0.43979 0.39316 0.05815 -0.091512 0.1109 -0.053417 -0.015666 0.081765 0.86002 0.41952 0.099057 0.065288 0.36564 -0.094453 -0.023643 -0.0035197 -0.19177 0.072897 -0.14812 0.31651 0.32861 0.1378 -0.075569 0.14224 0.035615 0.21914 0.29888 0.043638 0.002221 0.17452 -0.040651 0.26236 -0.43259 -0.24112 -0.15819 0.39002 -0.19343 -0.010721 0.069022 -0.50007 0.38503 0.17075 0.24699 0.41847 0.31036 -0.58331 -0.030943 0.19712
rabbi -0.34895 0.24454 -0.039984 0.44274 -0.036883 -0.069207 -0.17022 0.11578 -0.22152 0.070777 -0.32297 0.63302 0.29894 0.66713 0.081618 0.22009 0.42427 -0.28479 -0.15124 -0.26841 -0.28471 -0.20346 0.0014352 0.22086 -0.12897 -0.25836 0.51298 0.39828 0.32824 0.42194 0.23265 -0.57711 0.012822 -0.36276 -0.56619 -0.062013 -0.27852 0.46018 0.10849 0.22919 0.21186 0.3202 0.12676 0.064318 0.65092 -0.40884 0.29245 0.59324 0.010853 0.023703 0.19058 -0.28285 -0.24122 -0.1235 -0.379 -0.55064 -0.0187 0.4402 0.043344 -0.14794 0.76689 -0.16298 0.092459 -0.51669 0.67345 -0.61117 -0.59102 -0.37099 -0.28706 -0.3449 -0.28188 0.68382 0.32686 -0.45562 -0.50991 0.12393 -0.53426 0.33552 0.049181 0.018827 -0.035226 -0.5352 -0.063937 -0.024359 0.66672 -0.011231 0.25309 -0.30492 0.12573 -0.093222 0.036874 -0.42659 -0.1647 0.76529 -0.34354 -0.2704 0.029273 -0.17137 -0.040324 -0.068134
murder -0.76426 0.81088 0.88422 0.055731 -0.1161 -0.096541 -0.13802 -0.32485 0.055239 0.25586 -0.42124 0.019107 0.039312 0.45838 0.11564 -0.24878 -0.10369 -0.069697 0.043541 -0.16461 -0.16523 0.018978 0.10589 0.34972 -0.31482 0.17414 0.50946 0.58311 0.030379 0.033712 0.046169 -0.49958 0.090664 0.19181 -0.48742 -0.47008 0.29911 0.037887 -0.21918 -0.57499 -0.3861 0.07502 -0.49191 -0.27828 0.15197 -0.69024 -0.25204 0.11099 -0.12603 0.38464 -0.6207 -0.048394 0.72592 0.35893 -0.29699 0.28183 -0.38273 0.32116 -0.34655 -0.029462 0.72167 -0.041755 -0.3125 -0.21975 1.2991 -0.16458 0.1181 -0.13138 -0.20952 -0.15649 0.50364 0.54517 0.52185 -0.32359 -0.65118 0.77621 -0.61707 0.41533 0.32267 0.27075 0.1751 0.20191 0.55645 0.71373 0.217 0.90191 0.38486 0.37526 -0.24254 -0.077622 0.30672 -0.11402 0.17169 -0.043524 -0.1038 0.20745 0.013535 0.41812 -0.12516 -0.59423
tableware -0.06337 -0.27935 -0.21317 -0.0017851 0.16565 0.033073 -0.42584 -0.23093 0.16419 -0.096836 -0.088263 0.1122 -0.21258 0.14391 -0.13349 -0.29873 0.059004 -0.18384 -0.031864 -0.28986 -0.099659 -0.13034 -0.36925 0.10121 0.033294 -0.57663 0.32177 0.027563 0.063888 0.22674 -0.072872 0.13288 -0.079375 -0.093041 0.11276 0.11703 -0.11486 -0.20221 0.45728 -0.18966 0.3519 0.21477 0.27159 -0.064419 0.41139 -0.237 0.33679 0.047353 -0.27392 -0.055879 -0.082342 -0.16346 0.27959 -0.038614 -0.10401 0.44033 0.24234 -0.31024 0.029269 0.27813 0.056229 -0.19951 0.17546 -0.022608 -0.11099 0.17535 0.11581 0.032597 -0.63824 -0.38018 0.091013 -0.11755 0.09675 0.1525 -0.64304 0.33965 0.17449 -0.11903 -0.2281 0.14108 0.45758 -0.015777 0.45522 0.28835 0.39182 -0.12183 -0.32107 0.43814 0.34845 0.13592 -0.0004517 -0.44094 0.42251 -0.036665 0.065203 -0.33523 0.026259 -0.36968 0.3927 -0.16148
boxing -0.47378 -0.22523 0.19841 0.56944 0.29965 0.14437 -0.12128 -0.60891 0.03116 0.014285 -0.57965 -0.050918 0.29799 0.43879 0.38953 -0.14462 -0.11996 -0.47375 0.14159 -0.14782 -0.47555 -0.080177 -0.9803 0.34139 0.073644 0.31286 0.11933 -0.45904 0.23085 0.31895 -0.45764 -0.13157 0.27348 -0.87069 -0.17576 0.070297 -0.64882 0.027367 -0.22765 -0.35192 -0.036815 0.30583 0.057346 -0.10955 0.026203 -0.60557 0.17736 0.42775 0.27496 -0.12963 0.37742 -0.31365 -0.070927 0.32298 0.011276 0.17653 0.46187 -0.31678 -0.36082 0.3911 0.73765 0.38326 0.24571 0.29397 -0.011882 -0.19571 0.37428 -0.090264 -0.1982 -0.31096 0.11438 0.087674 0.61494 -0.11721 -0.34477 -0.10544 0.23842 0.1874 -0.017492 -0.038879 0.19242 -0.2545 0.17432 -0.27586 0.22248 0.39734 -0.035069 0.035295 0.22107 0.90337 -0.43962 0.024973 0.4742 0.34822 -0.12937 -0.23999 -0.099957 0.051284 -0.084162 -0.061603
forest -0.38639 0.34924 0.54818 0.048497 -0.01552 -0.83856 -0.59372 -0.076718 -0.40343 -0.068108 -0.39739 0.58913 0.22836 0.11192 0.22122 -0.36601 -0.033398 -0.50484 0.48754 -0.39393 -0.13558 -0.22465 -0.2335 -0.038375 0.08629 -0.91319 0.59258 0.5612 -0.33457 0.40712 -0.090301 -0.13835 -0.56608 0.2784 -0.35243 -0.075416 0.57324 -0.39837 -0.28935 0.10592 -0.42713 -0.0833 0.57906 -0.18681 0.59315 -0.012207 -0.14076 -0.28008 -0.32521 -0.10425 0.04147 -0.35586 -0.039427 0.55849 -0.11479 0.15613 -0.19682 0.55339 0.12761 0.33616 0.062114 0.20814 0.238 -0.11319 0.10758 -0.27178 -0.3598 -0.19617 0.015225 -0.34911 -0.093064 0.50486 0.48773 0.76588 -0.10232 0.34141 -0.26083 0.27043 -0.011948 0.27791 0.24431 -0.18396 -0.1026 -0.30534 0.061781 -0.26683 -0.13629 0.57563 0.076997 0.53816 -0.73817 -0.78531 -0.065414 -0.39142 0.44066 0.17861 -0.34947 0.22586 -0.54316 0.49646
entity 0.050238 -0.73957 0.017744 -0.31282 -0.40965 -0.18002 -0.43178 -0.52815 -0.092394 0.048607 -0.21917 0.62229 -0.19523 0.5373 0.1578 0.2655 -0.27816 -0.42051 -0.39072 -0.24617 0.26615 -0.21029 -0.20771 -0.051786 0.31382 -0.18886 0.0090717 -0.27576 -0.53879 0.28277 -0.061708 -0.51607 -0.25221 0.32739 -0.33698 -0.3891 -0.34974 0.064921 0.46477 0.091524 -0.29681 -0.074551 -0.0065386 0.30827 -0.17856 -0.25109 -0.25294 0.54925 -0.019186 0.46768 0.37097 -0.28756 -0.1917 -0.35 0.021801 -0.097123 0.33321 -0.23785 0.055737 -0.21504 0.78236 -0.10797 0.32625 -0.20803 0.45927 -0.54447 -0.075305 -0.25678 -0.00055301 -0.52847 -0.084878 -0.052817 0.37786 0.40834 -0.6673 0.54476 -0.0027053 0.44891 -0.35395 0.011391 0.43882 0.5589 0.3258 0.38063 -0.34814 -0.0083027 -0.27208 0.069322 0.38804 -0.34335 -0.20714 -0.34626 0.065217 0.33624 0.24856 0.53633 0.51813 -0.44586 0.73275 -0.38515
day 0.0091158 -0.28211 0.23142 0.37292 0.18723 0.07783 -0.15756 0.18406 0.044589 0.025904 -0.65139 -0.016128 -0.23406 0.40998 0.13161 -0.14875 0.020371 -0.41672 -0.16706 -0.35754 0.013525 -0.048918 -0.59578 -0.044287 0.15071 -0.28555 0.28119 0.55679 0.057556 0.20745 0.23451 0.355 0.47083 -0.32359 -0.50517 -0.14763 0.22578 -0.16157 -0.085876 0.084459 0.099361 0.11415 0.3715 0.22276 0.18177 0.31575 0.015294 0.0094926 0.14705 -0.33307 0.37419 -0.1505 0.088324 0.2222 -0.11568 -0.066848 -0.13191 0.13261 -0.19689 0.054111 0.43431 -0.023484 0.15264 -0.096236 0.37301 0.23719 -0.19439 -0.30238 -0.0091396 0.014383 0.037406 -0.045602 0.29738 -0.32945 0.035268 -0.29338 -0.18978 -0.066307 -0.018014 0.29185 -0.035284 0.18793 0.26315 0.10416 0.26936 -0.074624 0.064911 0.47792 -0.097559 0.41047 0.31103 -0.067169 0.23648 0.091817 -0.03198 -0.12145 -0.057265 -0.44032 -0.18099 -0.43295
jackson 0 0 0 0 0 0 0 0 0 0 0 0 0 0 0 0 0 0 0 0 0 0 0 0 0 0 0 0 0 0 0 0 0 0 0 0 0 0 0 0 0 0 0 0 0 0 0 0 0 0 0 0 0 0 0 0 0 0 0 0 0 0 0 0 0 0 0 0 0 0 0 0 0 0 0 0 0 0 0 0 0 0 0 0 0 0 0 0 0 0 0 0 0 0 0 0 0 0 0 0
seafood -0.11111 -0.24867 -0.19695 0.064984 0.73389 -0.12358 -0.61394 -0.28237 -0.29381 -0.48453 -0.73228 0.5932 -0.42108 -0.29684 -0.39963 -0.25391 -0.39826 -0.24453 -0.077919 -0.40452 -0.50123 -0.055938 -0.33808 0.37312 -0.382 -0.46194 0.241 0.37574 0.068321 0.22742 -0.067154 0.20126 -0.155 0.27805 -0.041797 0.36582 0.51713 0.077896 -0.12843 -0.25485 0.4587 0.39862 0.43319 -0.16665 0.47025 0.18984 -0.18279 0.31207 0.2215 -0.35541 -0.053672 0.46388 -0.044221 0.020874 -0.0085033 0.64173 0.58014 -0.28071 0.2555 0.77702 0.11509 -0.57122 0.024899 -0.40677 0.3864 0.26477 -0.56779 -0.56489 -0.951 -0.4302 0.18177 -0.16531 0.44726 0.47505 -0.45551 0.2065 -0.14307 0.19188 -0.083604 -0.1245 -0.33353 0.073031 0.27572 0.15538 -0.09379 -0.37508 -0.54093 0.38925 -0.16275 0.31732 -0.16109 -0.79883 0.63282 0.34378 0.58055 0.043605 -0.12648 -0.20201 -0.36902 0.097754
governor 0.054119 -0.1712 0.48857 0.43943 -0.045591 0.035995 0.181 -0.57056 0.062873 -0.16424 -0.50779 -0.13246 0.030484 0.1369 0.73694 0.16072 0.39796 -0.065405 -0.42814 -0.24539 -0.28277 -0.25328 -0.10094 0.04719 -0.064015 -0.42781 0.6102 0.36874 0.48179 0.22863 0.19488 -0.34421 -0.17076 0.37605 -0.20959 -0.53716 -0.44571 -0.078651 -0.24893 0.56505 -0.54143 -0.57833 0.0095981 -0.4583 0.17979 0.33747 -0.27414 0.65795 0.20227 -0.05664 -0.38129 -0.78513 -0.76891 0.033314 0.22152 -0.08092 -0.19836 0.11748 0.26862 0.24427 0.95377 0.22162 -0.095559 0.39306 0.54433 -0.70031 -0.68766 -0.87916 0.34722 -0.12704 0.644 0.16109 0.11549 -0.2548 -0.30002 -0.10308 0.20771 0.63051 0.50455 0.29467 0.47134 -0.5557 -0.062123 0.14365 0.45767 -0.07901 -0.31696 0.55665 -0.57942 -0.14073 -0.3014 -0.044378 0.022434 0.81615 0.16451 -0.41382 -0.41057 -0.33851 -0.3348 -0.070252
grocery -0.13587 -0.077898 -0.26823 0.33337 -0.0023087 0.74416 -0.3919 -0.34243 0.24545 -0.34973 -0.58447 0.42754 -0.15983 0.19725 -0.29223 -0.57144 -0.15962 0.0076071 -0.15566 -0.71387 -0.6283 0.18347 -0.12652 0.30186 -0.50118 -0.56809 0.66156 0.72654 0.13655 -0.049653 -0.016666 0.48917 0.030201 0.29064 0.27476 -0.16809 0.32594 0.27683 -0.094276 -0.018258 0.74334 0.93305 0.59287 0.02534 0.80991 -0.2186 -0.031877 0.23319 -0.074304 -0.33889 -0.036157 0.32207 -0.60255 0.072512 0.061705 1.0228 0.017466 0.034751 -0.28214 0.29141 0.54365 -0.4592 0.40092 -0.51167 0.59005 0.059272 -0.12288 -0.15744 -0.37247 -0.66581 0.80543 0.073028 0.055682 0.17934 -0.69063 0.30124 0.069428 -0.055659 -0.064403 0.44427 -0.24544 -0.111 0.28047 -0.13532 0.59098 0.15792 -0.21255 0.33128 -0.31838 0.23086 -0.056843 -0.85205 -0.045328 -0.059726 0.22673 0.24462 0.20693 -0.55485 -0.0059732 -0.37957
cognition -0.05189 0.3992 0.069882 -0.30366 -0.092549 -0.17158 0.11195 0.077935 0.026718 0.14653 -0.41671 0.35532 0.31198 0.070983 0.13918 -0.04789 -0.33457 -0.47804 -0.43345 -0.19659 0.64635 -0.37853 -0.518 0.14481 -0.4363 0.042337 0.94631 -0.17492 -0.40406 0.036604 -0.1036 0.76143 -0.045668 0.20865 -0.46768 -0.098344 -0.24741 -0.16753 0.078987 -0.13452 -0.27604 0.2157 1.0906 -0.1507 0.21099 -0.12317 0.17189 0.47478 -0.28378 0.50694 0.30248 0.1272 0.39226 0.98222 -0.26879 0.11766 0.22503 -0.24856 -0.11078 -0.14209 0.37293 -0.36352 -0.04494 0.26986 0.28624 -0.2852 -0.03686 0.27076 -0.62471 -0.19242 0.30575 -0.45374 0.02135 -0.21293 -0.1756 0.52438 0.15015 -0.15022 -0.66702 -0.27514 0.2763 0.11224 -0.040275 0.14758 0.12044 0.44336 -0.28776 -0.012677 0.41796 -0.40796 0.03133 0.090962 0.51325 -0.016505 0.13756 0.070756 -0.21255 -0.18994 0.34986 0.5557
lawyer -0.035219 -0.15081 0.41198 0.47585 -0.19884 0.048541 0.089121 -0.5661 0.099756 -0.21102 -0.9012 0.74926 -0.29979 0.4515 -0.22812 0.013049 -0.39032 -0.0091501 0.073439 -0.582 0.47949 -0.5276 0.11179 -0.10847 0.060271 0.01376 0.50942 -0.13148 -0.086505 0.036891 0.52373 -0.52253 0.041181 -0.097898 -0.12617 -0.36541 -0.40713 0.5596 0.050501 -0.60698 -0.1392 0.54826 -0.62489 -0.48325 0.054969 -0.23558 0.18881 -0.31513 -0.066423 0.12539 -0.23482 -0.021659 -0.15892 -0.25498 -0.39523 -0.22517 -0.11024 0.30407 0.18032 -0.16297 0.87681 0.32868 0.19939 0.18216 0.56338 -0.42815 -0.65482 -0.064411 -0.016554 -0.15568 0.47618 0.65876 0.8588 -0.27074 0.13049 0.35268 -0.19807 0.14602 0.38675 0.42493 0.39222 -0.40686 0.39181 0.41254 0.46616 0.12993 -0.053443 0.17297 -0.027077 0.022792 -0.010196 0.16501 0.16408 0.29387 0.43747 -0.024654 0.047467 0.21184 0.1791 -0.37367
image 0.30291 0.36954 0.37061 -0.077796 0.1442 0.024705 -0.36416 0.080288 -0.35154 0.39599 -0.19851 -0.19992 0.23693 0.08921 0.16718 -0.48714 0.30983 -0.002671 0.32735 -0.27391 0.15852 -0.034328 0.11994 -0.066009 -0.061228 -0.0050155 0.5178 -0.14112 -0.29063 0.53082 0.17798 -0.21024 -0.1921 -0.04844 -0.55621 -0.21214 -0.042401 -0.24922 -0.069584 -0.25597 -0.33933 0.29731 0.23601 0.091055 -0.076099 0.16222 0.0021798 0.60442 0.30604 0.1751 0.27185 0.027 0.22418 0.40202 0.46041 -0.046292 0.055215 -0.50788 -0.38283 0.43249 0.421 -0.1961 -0.027296 0.23146 -0.003866 -0.56448 0.14287 -0.40034 -0.42048 -0.22817 0.44356 0.033252 0.40845 0.13612 -0.4584 0.46733 0.12303 0.38582 -0.37449 -0.11058 -0.075393 -0.78766 -0.079844 -0.051218 -0.033392 0.079316 -0.85131 0.18401 0.47709 -0.50694 0.30576 -0.33576 0.94476 0.12927 0.38762 0.04283 -0.026143 -0.3983 0.16606 0.016015
month 0.0035723 -0.16502 -0.013561 0.24898 0.10076 0.29534 -0.32575 -0.023555 -0.069261 -0.32239 -0.26603 -0.2585 -0.32141 0.62579 0.031028 -0.086602 0.37637 -0.14725 0.06471 -0.38303 -0.21385 0.032342 -0.44653 -0.31315 0.16057 -0.16022 0.37127 0.59132 -0.0074073 -0.28234 0.057317 0.2442 0.18607 -0.41691 -0.28498 -0.30861 0.4062 -0.15829 0.08613 -0.078648 -0.33911 0.062032 0.33198 0.24728 0.26302 0.15049 -0.084648 0.28657 0.44117 -0.27705 0.054553 -0.34958 0.29299 0.070671 -0.47133 -0.16679 0.026749 0.44152 -0.19732 -0.00012705 0.63814 -0.087058 0.306 -0.15558 0.29994 0.27682 -0.31919 -0.20736 0.15343 0.051932 0.31451 -0.15693 0.010523 -0.43786 0.25269 -0.20864 0.0046564 0.44615 -0.36039 0.45714 -0.0042444 0.25934 0.015044 0.25511 -0.038069 -0.061971 -0.20658 0.882 0.24423 0.038663 0.15833 -0.34885 0.085781 -0.019212 -0.16287 0.058237 0.063768 -0.38781 0.25566 -0.69191
area -0.19291 -0.10044 0.29588 0.36833 -0.24362 -0.22935 -0.70065 -0.24273 0.008525 0.21141 -0.29832 0.23365 -0.034786 0.094792 0.26997 -0.35286 -0.1288 -0.13973 -0.37896 -0.2429 -0.033564 0.0067899 0.24538 -0.2702 -0.078471 -0.29483 0.48662 0.28265 0.46743 -0.011026 -0.23028 0.24398 -0.11144 0.18002 -0.43294 -0.29623 0.67507 0.024071 -0.4584 0.10996 -0.44028 0.025309 -0.029368 0.31588 0.50788 0.073766 -0.092658 -0.20609 -0.68035 -0.24428 0.13126 0.18446 0.19047 0.36857 -0.38607 0.093835 -0.09812 0.12137 0.052846 0.077041 0.26499 -0.10456 0.29475 -0.29561 0.067246 -0.22819 -0.37075 -0.085466 -0.1654 -0.36219 0.068389 0.28617 -0.047933 0.0056298 -0.18899 0.20062 -0.24817 0.52546 0.025403 -0.091574 0.12033 0.12514 0.14947 -0.092507 0.50672 -0.019895 -0.37549 0.32279 0.040173 0.0091565 -0.44171 -0.14704 0.4614 0.056003 0.032884 0.54949 -0.34185 -0.28968 0.30077 0.14707
listing -0.084835 -0.52489 0.26312 0.15159 -0.41439 -0.44346 -0.21446 -0.41007 0.057004 -0.52217 -0.33742 0.81954 -0.1993 0.58271 -0.18465 -0.33603 -0.33768 -0.36975 0.21951 -0.45934 0.16989 -0.27009 0.17787 -0.15171 -0.074785 -0.60634 0.10816 0.2708 -0.2258 -0.042622 0.099765 0.084441 -0.033637 -0.0019922 -0.2382 0.010219 0.24185 0.29284 0.22404 -0.094066 -0.34279 0.21848 0.10233 -0.13337 0.12863 -0.22073 0.19631 0.024841 0.38464 0.068775 -0.005257 -0.41464 -0.27891 0.30781 -0.13017 0.11161 -0.15113 -0.44109 0.13021 -0.092093 0.174 -0.56186 0.15644 0.33671 -0.065168 0.10129 -0.17337 -0.23092 0.069197 -0.022667 0.20879 -0.11912 -0.14822 0.71389 -0.32878 0.26122 -0.36493 0.19429 -0.23682 0.13184 0.11885 -0.31429 0.14322 0.50576 0.31998 0.25236 -0.19598 0.38517 0.061356 -0.20097 -0.19691 -0.32309 0.082888 0.49883 0.010716 -0.50065 -0.019868 -0.43696 -0.2222 -0.62565
sex -0.20581 0.49745 -0.043335 -0.23954 -0.48839 -0.16176 -0.43336 -0.097121 -0.11964 0.33238 -0.21831 0.4487 -0.064576 0.20104 0.2028 0.086024 0.23861 0.13093 -0.44516 -0.66418 -0.1211 0.32952 -0.1121 0.69445 -0.036637 0.093463 0.34083 -0.050402 -0.1588 -0.094174 -0.12613 0.36848 0.33498 -0.41572 -0.82096 0.432 0.17539 -0.42439 0.096565 -0.31478 -0.53573 0.043972 -0.3009 -0.74195 0.56307 0.23405 0.31003 0.62486 0.64193 0.31313 -0.066721 0.22994 0.18356 0.56368 8.1488e-05 0.16738 0.1345 -0.067292 0.020085 0.31492 1.126 -0.29456 0.053334 -0.20202 0.59439 -0.26774 -0.086186 -0.78293 -0.30221 -0.4368 0.27089 0.075552 0.43364 -0.26408 -0.69854 0.21417 -0.59422 0.12687 0.22004 -0.043453 0.24714 -0.43715 0.7048 -0.13531 -0.36645 0.4799 0.49361 -0.065869 0.19254 0.46738 0.52301 0.12635 0.39493 0.58739 -0.38739 0.0066176 -0.32597 -0.20207 -0.1559 -0.24734
hundred -0.15604 0.030691 -0.078905 0.68186 0.20937 0.04165 0.24584 -0.10778 0.09669 -0.041527 -0.41534 -0.013378 -0.48297 0.49268 0.57872 -0.1174 -0.50034 0.20085 0.14503 -0.89713 -0.41877 -0.19428 -0.63587 -0.25257 0.21337 -0.28105 0.55097 0.13767 0.26343 0.60761 0.25855 -0.20678 -0.12824 -0.44266 0.044636 -0.42617 0.40838 -0.043617 -0.33886 0.44974 0.045956 -0.1961 0.60331 0.028201 0.18503 0.091 0.58935 0.1943 -0.038584 -0.2607 0.22576 0.46448 0.19186 0.29406 0.17025 0.092825 -0.14418 0.36069 0.0063995 -0.087333 0.42268 0.19927 -0.22445 -0.10447 0.12511 -0.12716 -0.20599 0.010543 -0.24254 0.19917 -0.4698 0.11362 -0.15467 -0.29865 -0.33142 0.1577 -0.18843 0.0029239 0.069713 0.046026 0.31039 0.18352 0.4469 0.010984 0.41994 -0.083652 0.10318 0.63978 -0.15075 -0.092105 -0.45158 -0.4318 0.12024 0.35575 0.16869 -0.88192 -0.23397 -0.64428 0.35478 0.049603
museum -0.45025 -0.15347 0.049429 -0.15363 0.41884 0.64439 -0.14542 -0.019966 -0.57927 0.019733 0.084445 0.43077 0.2861 0.67033 -0.65265 -0.12957 -0.39557 -0.17816 -0.14526 -0.32007 -0.04198 -0.075105 -0.49996 -0.039953 -0.0041153 -0.70129 0.43913 0.34849 0.16637 0.28807 -0.32158 -0.26396 0.45957 -0.049292 -0.37904 -0.41784 -0.036939 0.24351 -0.16572 0.023084 -0.68864 0.0042382 0.15778 0.081883 0.20697 -0.44706 0.51884 0.60154 -0.1655 0.34738 0.36673 -0.45165 -0.13958 -0.11128 -0.20887 -0.14265 -0.16382 0.037096 -0.22675 0.2787 0.4138 -0.28904 0.54253 -0.12872 0.17909 -0.78307 0.2771 0.064655 -0.39096 -0.15459 0.19936 0.58725 0.33146 0.46211 -0.047994 0.28951 -0.35656 0.24291 0.19224 -0.40614 -0.31146 -0.25878 0.63842 -0.046279 0.41858 0.21996 -0.73678 -0.061322 0.24567 -0.26442 -0.49535 -0.59782 0.46151 0.16921 0.1526 0.026064 -0.18603 0.08523 -0.25652 0.13173
currency 0.14036 -0.0016167 -0.43737 -0.76425 -0.0883 0.31317 -0.34244 -0.59383 0.69008 -0.30527 -1.1274 0.54543 0.26073 0.041183 -0.041748 -0.077746 -0.078714 -0.46031 -0.48058 -0.7877 -0.087044 0.27354 0.0027321 0.26675 0.35352 0.027918 0.66202 0.081646 0.081798 0.24455 -0.81812 -0.066059 -0.18652 0.0025099 -0.26547 -0.11818 -0.095922 0.011775 0.10906 -0.4325 -0.41495 -0.15823 0.51005 -0.010425 -0.31204 0.49208 0.10037 0.89311 0.20991 0.05613 0.60079 -0.18468 -0.26264 0.10458 0.51127 0.41461 0.22971 -0.4783 0.4118 -0.10014 0.067792 -0.064044 0.57871 -0.20122 0.38173 0.30658 -0.21014 -0.67525 0.22921 0.11844 -0.35358 0.15511 -0.48653 0.16378 -0.31756 0.49442 -0.022585 0.34649 -0.42229 0.72892 0.71236 -0.77828 0.12996 0.93703 -0.024633 0.50398 -0.36904 0.40872 -0.60056 0.096903 0.094286 -0.63066 0.020648 0.57642 0.2855 -0.07512 0.068413 0.2473 0.52951 -0.048322
soccer -0.64508 0.38829 0.60739 0.13449 0.73967 -0.10507 -0.47981 -0.62621 -0.48582 0.11648 -0.49417 0.068756 0.22469 -0.11217 0.51177 -0.13721 0.37026 -0.81039 -0.3718 -0.29442 -0.27026 -0.38281 -0.2646 0.19916 0.26934 0.10573 -0.14123 -0.14877 0.14428 -0.00097533 0.076628 -0.34238 -0.3055 -0.5731 -0.077558 -0.16013 0.087805 0.28375 -0.41157 0.14913 -0.40017 0.43368 0.61366 0.18523 0.14997 -0.41049 0.30215 0.24573 -0.22508 -0.023728 0.50734 0.23362 0.062162 0.052301 -0.76735 -0.20187 0.63777 -0.31096 -0.4346 -0.29246 0.67264 0.48468 0.55974 0.19618 0.12849 -0.28302 0.53274 -0.42697 -0.049221 -0.17479 0.38315 0.03554 0.36339 -0.08504 -0.41247 0.28118 0.70908 0.25054 -0.057256 0.37274 -0.036296 -0.41831 -0.1613 -0.26539 0.34463 0.32629 0.43205 0.27563 0.045116 0.46573 -0.3566 -0.48541 0.82768 0.58611 -0.5334 -0.54129 -0.27181 0.17238 -0.34568 0.29497
communication -0.20989 0.2626 0.434 0.027927 -0.37114 0.15367 -0.51809 0.0053278 0.14037 0.036974 -0.41735 0.45689 0.095568 0.087688 0.7989 0.13135 -0.211 -0.19959 -0.44691 -0.057176 0.72725 -0.23003 -0.43939 0.083524 -0.13453 -0.33386 0.28107 -0.23588 -0.33527 -0.017668 -0.33024 0.30696 0.18535 0.6429 -0.39474 -0.15146 -0.24168 -0.097929 0.4999 -0.25922 -0.42823 0.20248 0.41554 0.098709 -0.021022 0.039755 0.3143 -0.11081 -0.083358 0.36266 0.20631 -0.34276 -0.0047468 0.57655 -0.25243 0.2775 -0.039746 0.08133 -0.19541 -0.096656 0.16128 -0.24487 -0.034424 -0.15344 -0.20286 0.05108 -0.52977 -0.05005 -0.37415 -0.71279 -0.26265 -0.11612 0.49185 0.12368 -0.31386 -0.022707 -0.13253 -0.046471 0.04472 0.33209 0.66439 0.078176 0.3032 -0.023847 0.0092233 -0.041599 -0.40754 0.096052 0.3382 0.1271 0.2016 -0.058011 0.48131 0.50262 0.36304 -0.079344 0.35017 -0.13691 0.28434 0.10319
canyon -0.20726 -0.20782 0.49647 0.2863 -0.18218 -0.4949 -0.41234 -0.16648 -0.61247 -0.1022 -0.61534 0.11986 0.05863 0.15434 -0.29005 -0.31222 0.248 -0.35446 -0.60333 -0.80391 -0.36708 0.0067794 -0.16515 -0.24417 -0.13632 -0.51649 0.54118 0.029872 -0.022556 0.20919 -0.058617 -0.22671 -0.26183 0.13813 -0.53946 0.26948 0.72414 0.0010026 -0.68565 0.084407 -0.50235 0.18784 -0.014243 0.2348 0.53468 -0.2535 -0.21824 0.14774 -0.16439 0.37874 0.20636 0.30976 0.11837 0.42563 0.5249 0.15391 -0.069049 0.18728 -0.17726 0.038137 -0.10052 -0.30021 0.075232 0.060638 0.40821 -0.26859 0.35848 -0.13238 -0.65233 -0.18468 -0.24896 0.45714 0.32046 0.325 -0.42224 0.38257 -0.29751 0.095496 0.15803 -0.013047 -0.10666 -0.010193 -0.21345 -0.29632 0.68747 -0.28474 -0.15044 0.91374 -0.056301 0.28104 -0.9965 -0.68341 0.42492 -0.39008 0.50274 0.083318 -0.61155 0.011868 -0.23561 0.6055
environment -0.16725 -0.15725 0.091297 -0.35564 0.38043 -0.078684 -0.43699 -0.21824 0.14516 0.16186 -0.54133 0.64619 0.22699 0.012026 0.28325 -0.21697 -0.078997 -0.24155 -0.063088 -0.19538 -0.090555 -0.060774 0.16067 -0.10513 -0.33747 0.013665 0.59921 -0.29556 -0.051957 0.25822 0.066999 0.079612 -0.02731 0.37895 -0.8035 0.26596 -0.15588 -0.29106 0.071067 -0.050182 -0.18559 -0.20296 0.056417 -0.18961 0.24397 0.15841 -0.14413 -0.041338 -0.29087 0.36776 0.61655 -0.13991 -0.19612 0.6793 -0.12576 0.19139 0.31509 0.099288 0.082125 0.085181 0.55044 0.10678 -0.030411 -0.020661 -0.21005 0.12935 -0.82876 -0.68599 -0.1248 -0.65641 -0.078489 0.19475 0.34275 0.27298 0.04197 0.39551 0.042204 0.29925 -0.13234 0.087282 0.103 0.33439 0.14172 0.0087585 0.05281 -0.17961 -1.0107 0.31118 0.2157 0.31278 0.43032 -0.00026604 0.22741 0.061582 0.30904 0.18472 0.15836 -0.084014 -0.025504 0.2617
anxiety -0.10193 0.29355 0.088104 0.19108 -0.39767 -0.3035 -0.40653 -0.11023 0.11005 0.36929 -0.94328 0.34457 -0.031565 -0.13509 0.053651 -0.23037 -0.033544 -0.20527 -0.51795 -0.23493 0.059828 0.21652 -0.61851 -0.25889 -0.39072 0.71769 0.77707 0.3687 -0.38987 -0.085227 -0.58797 0.45477 0.024518 0.19749 -0.42008 -0.05627 0.36694 -0.20029 -0.036444 0.063768 -0.08274 -0.045485 0.42067 -0.5127 -0.057209 0.11785 0.17714 0.85917 0.063117 0.18377 0.44731 0.22557 0.095324 0.54298 -0.25596 0.1128 0.6081 -0.48753 0.31881 -0.023101 0.13557 -0.14886 0.54537 0.11506 0.42103 -0.32533 -0.10205 -0.31698 -0.42177 -0.26813 0.077747 -0.14544 0.27173 -0.71173 0.29413 0.42851 0.47802 0.065587 -0.080736 -0.32497 0.68438 0.06626 -0.0057866 -0.17447 -0.19875 0.093265 -0.34021 -0.36921 -0.13785 0.047244 0.44701 -0.040696 0.41177 -0.28437 -0.32619 -0.52304 0.071572 -0.11217 0.15042 -0.095353
sprint -0.23996 0.0053084 0.72657 0.35484 0.1052 -0.5803 -0.30958 -0.18875 -0.32085 0.13785 -0.83695 0.22131 -0.35766 0.53105 0.33131 -0.24878 0.56944 0.15749 -0.070506 -0.27494 -0.42696 -0.2896 -0.82877 0.11855 0.17381 -0.38608 0.2311 -0.31844 -0.047938 0.32375 -0.49627 -0.11309 0.43106 -0.87841 0.018467 0.030659 0.10316 -0.059028 -0.46225 -0.37697 -0.59238 0.51035 0.15282 0.31585 0.43008 -0.73525 0.13747 0.28087 0.028616 0.30191 0.11187 -0.34966 -0.28053 0.37766 0.034614 0.68293 -0.14706 -0.16169 -0.51721 0.21692 -0.029182 0.62165 0.19211 0.8232 -0.1903 0.20551 -0.06743 -0.54063 0.28036 0.56963 -0.17294 -0.28133 0.95223 0.084894 -0.37462 -0.29377 0.084505 0.11276 -0.14374 0.12757 -0.22372 0.052582 0.059471 0.31367 0.53729 0.52198 0.15186 0.69451 0.13566 0.53998 -0.1399 -0.19137 0.22986 0.33594 0.38508 -0.1632 -0.49756 0.33603 0.27802 -0.18783
wednesday 0 0 0 0 0 0 0 0 0 0 0 0 0 0 0 0 0 0 0 0 0 0 0 0 0 0 0 0 0 0 0 0 0 0 0 0 0 0 0 0 0 0 0 0 0 0 0 0 0 0 0 0 0 0 0 0 0 0 0 0 0 0 0 0 0 0 0 0 0 0 0 0 0 0 0 0 0 0 0 0 0 0 0 0 0 0 0 0 0 0 0 0 0 0 0 0 0 0 0 0
game -0.18211 -0.33564 -0.025815 0.21818 0.038209 -0.02953 -0.54726 -0.19682 -0.21983 0.10637 -0.54283 0.10287 0.19649 0.16776 -0.039663 -0.22624 0.1869 -0.64212 -0.18163 0.089447 0.28216 -0.44152 -0.49177 0.31849 -0.14805 0.17433 -0.16615 -0.1861 0.59737 0.44424 -0.028461 0.033591 0.19898 -0.46317 -0.29842 2.7269e-06 -0.13834 -0.24504 -0.2854 -0.66776 -0.62816 0.31359 0.499 0.62375 0.62851 -0.25534 0.11896 0.12776 -0.093972 0.012755 0.53164 0.12337 0.1732 0.55199 -0.15981 0.025908 -0.37138 -0.37254 -0.30351 -0.094354 0.3416 -0.11264 0.56689 -0.15809 0.2652 -0.19281 0.17852 -0.11828 0.15391 -0.1293 0.19436 0.13528 0.22905 -0.12408 -0.61336 -0.18429 0.60291 0.21012 0.013063 0.6861 0.29683 0.32433 0.33305 0.058402 0.63404 -0.044692 0.059481 0.29935 -0.11722 0.0709 -0.034453 0.12939 0.16694 0.16131 -0.26777 0.022285 0.38795 -0.15599 -0.024453 0.064782
peace -0.065171 0.90112 0.16833 -0.046057 -0.21448 -0.54665 -0.70132 -0.238 0.36901 0.33572 -0.4578 0.89818 0.51951 0.14517 0.34918 0.49363 -0.044674 -0.16105 -0.36462 -0.35552 -0.37804 -0.17673 -0.17711 0.25981 -0.0033905 0.57975 -0.091716 -0.0053849 -0.31784 0.40945 0.19561 0.19219 -0.1977 -0.27253 -0.99196 -0.64871 -0.059498 0.051873 -0.1364 0.12886 0.13656 -0.26869 0.51746 0.20064 0.24566 0.17322 0.1647 0.45317 -0.1703 0.70393 -0.35395 -0.34763 0.38356 0.79343 0.033006 0.10129 -0.42602 1.1353 -0.28886 -0.2181 0.54161 -0.4593 -0.19115 0.67154 0.52884 -0.13891 0.056261 0.18886 -0.094225 -0.40699 -0.15508 0.51887 0.73615 0.81935 0.15812 0.13814 -0.034627 0.48206 -0.15641 0.33642 -0.1325 0.054481 0.2227 0.26461 0.15541 -0.32803 -0.27562 0.36573 -0.12644 -0.23047 -0.58078 -0.92396 0.70657 0.3272 0.070318 -0.3339 0.48827 0.34073 -0.14908 -0.53945
journey 0.031919 0.26966 0.77925 0.30116 0.027733 0.00077531 -0.056278 0.13365 -0.20787 0.087057 -0.25764 0.43619 -0.014375 0.31802 0.39457 -0.69439 -0.20778 -0.43466 -0.32122 -0.66476 -0.050547 0.0070774 -0.39382 0.24831 -0.16366 0.085256 0.23121 0.049519 0.075193 0.70791 0.12361 0.43815 0.19801 0.055786 -0.54135 -0.17467 0.22043 0.44034 -0.64952 0.46757 -0.53604 0.34433 0.3797 0.076387 0.16608 0.36405 -0.26539 0.439 0.11609 0.37084 0.51211 0.22471 0.73688 0.31951 -0.063572 0.27182 -0.3788 0.058173 -0.59005 0.08951 0.091883 0.48229 -0.086879 0.10014 0.13028 -0.23541 -0.27305 -0.49115 -0.23153 0.0041055 -0.079175 0.19777 0.40821 0.12856 -0.11672 -0.018391 -0.53365 -0.38958 0.24681 0.27361 -0.339 0.069291 0.43641 0.050588 0.1045 -0.12752 -0.32907 0.39863 -0.52259 0.051716 0.05126 0.29899 0.47594 -0.32811 0.66973 -0.25373 -0.057735 -0.020751 -0.10012 -0.63864
psychiatry -0.40648 0.024978 0.12791 0.28724 -0.10907 0.47978 0.20049 0.11279 -0.3188 0.027416 -1.1091 0.81284 0.11909 0.203 -0.19193 -0.12068 -0.29827 -0.35804 -0.18719 0.27781 0.42782 -0.41414 -0.012747 -0.12632 -0.55779 0.26127 0.81588 0.1113 -0.38951 -0.105 0.021007 0.49937 0.49994 0.17399 -0.59917 -0.077836 -0.3498 -0.16017 0.39275 -0.34667 -0.56922 0.58259 -0.015105 -0.18653 0.64857 -0.85574 0.16764 0.28138 0.10887 0.29654 -0.22299 -0.26602 0.32788 0.47261 -0.46547 -0.011273 0.2838 0.25031 0.36003 0.39791 0.49887 -0.044438 0.57827 0.2885 1.4102 -0.24794 -0.59391 -0.32806 -0.52473 -0.045896 0.31283 0.90573 0.40656 -0.81118 -0.042162 0.23902 0.03844 0.63256 0.047484 -0.56297 0.18967 0.068704 0.7173 -0.14082 0.11671 0.31147 -0.3982 0.0028934 -0.23636 -0.77182 0.12841 0.043419 -0.33035 0.011268 -0.49285 -0.19104 -0.2842 0.62471 0.13305 -0.23828
science -0.43795 0.10324 0.14918 -0.12321 0.055982 0.12212 0.72646 -0.015788 -0.46908 -0.30484 -0.44522 0.56803 0.09674 -0.34969 0.66537 0.085733 -0.20238 -0.61678 -0.056997 -0.029924 0.14992 -0.23852 -0.18019 0.1296 -0.60178 -0.33015 0.49601 -0.52379 -0.44789 0.58812 -0.0256 0.66744 0.2034 -0.019828 -0.55217 -0.075004 -0.30832 -0.0068903 0.25868 -0.44197 -0.43677 -0.37224 0.40226 -0.19515 0.097132 -0.44262 0.5136 0.086502 0.098349 0.45223 0.34507 0.056101 0.26182 0.55526 -0.40155 -0.21414 -0.16015 0.30926 -0.014045 0.3038 0.2574 0.037178 0.014445 -0.087185 0.77266 0.033602 -0.40988 0.057259 -0.41814 -0.28085 -0.069402 0.30506 0.50368 -0.45901 -0.40471 0.31092 -0.19093 -0.1612 -0.025541 -0.24226 -0.067011 0.39846 0.44876 0.20798 0.092529 0.18452 -1.0422 0.10933 0.43525 -0.030337 0.0035187 -0.22846 -0.055385 0.053174 0.034198 -0.45789 0.25152 0.43965 -0.042694 0.3839
travel -0.24838 -0.18306 0.41334 -0.040618 0.17224 0.38393 -0.56742 -0.097465 -0.10976 0.037556 -0.48616 0.48335 -0.12226 0.33904 0.28953 -0.56722 -0.33198 -0.19076 -0.3643 -0.64989 -0.66281 0.033069 0.043549 0.66087 0.026268 -0.41964 0.33571 -0.27701 -0.0046757 -0.21446 0.32659 0.41708 -0.20676 0.25768 -0.25203 0.02462 0.76386 0.60694 0.099849 -0.13825 -0.31759 0.47158 0.23802 -0.32953 -0.024459 -0.033929 0.16604 0.39305 -0.0016012 -0.080653 0.16712 0.29631 0.027592 0.027876 -0.19088 0.30738 -0.19355 -0.095619 -0.29583 -0.11058 0.28484 -0.11951 0.24377 0.19374 -0.25601 0.3649 -0.35874 -0.60573 0.21837 -0.2674 -0.13628 0.55771 0.15818 0.13371 0.12161 -0.31042 -0.064241 -0.32871 -0.2868 0.39177 0.32701 0.31216 0.34993 -0.22574 -0.3841 0.14299 -0.54675 0.42379 -0.13101 -0.14489 -0.2296 0.33512 0.41909 0.089544 0.074379 -0.46003 -0.00013585 -0.12026 -0.20107 -0.1687
recommendation 0.13639 -0.16492 -0.088371 0.17989 0.061821 0.22499 0.12788 -0.42681 0.17671 -0.44472 -0.36424 0.39174 0.16077 0.019329 0.32253 -0.10611 -0.25166 -0.56673 0.061254 0.03824 0.62112 -0.40022 -0.0011596 0.088851 -0.21027 -0.49113 0.19421 0.5999 -0.11676 0.22086 0.090803 0.13982 -0.030871 -0.056562 -0.29492 -0.39168 0.21296 0.091938 -0.32498 0.071939 -0.066446 0.79915 -0.17696 0.064971 0.43866 -0.22587 0.19723 0.26698 -0.23489 0.18911 0.17772 -0.42908 -0.34662 0.043167 -0.27709 -0.30396 -0.20966 0.014183 0.21553 0.17329 0.50739 -0.5387 -0.17554 0.6092 -0.11669 -0.084455 -0.7928 -0.6161 -0.46746 0.16823 0.095441 -0.16252 0.10883 0.21092 0.034215 0.097966 -0.16472 0.45623 -0.4112 0.39888 -0.060264 -0.086112 0.4475 0.51425 -0.53229 -0.1485 -0.31912 0.13758 0.40033 0.07926 0.15989 0.1477 0.12853 -0.37904 -0.42762 -0.19421 0.015427 -0.034179 0.14073 -0.56998
group -0.52648 -0.31587 -0.22384 0.20011 0.28822 -0.4031 -0.20886 -0.12942 -0.055076 -0.22489 -0.092851 0.50271 -0.040156 0.19377 0.42192 0.088497 -0.32944 -0.17016 -0.36098 -0.5239 0.27178 0.1884 -0.048185 0.097883 -0.024122 -0.035787 0.32939 0.27339 0.17618 -0.13475 0.38837 -0.32868 -0.33925 -0.21919 0.00069745 -0.33203 -0.15177 0.011727 -0.29254 0.014845 -0.30293 0.27596 -0.27489 0.32232 0.11011 -0.017517 0.19308 -0.093681 -0.18937 -0.57018 0.38975 -0.38126 -0.13721 0.26748 -0.43881 0.12696 0.35084 -0.087095 -0.33152 -0.21372 0.55489 -0.20195 -0.27073 -0.11418 0.41811 0.0027822 -0.56566 0.049016 -0.0069807 -0.091977 -0.19772 0.069018 0.40497 -0.0093237 -0.13653 0.49674 0.17532 0.36966 -0.2247 0.085391 -0.32581 0.17693 0.19718 0.015582 0.11632 0.051631 -0.24301 0.1838 0.41679 -0.061632 0.25328 -0.37096 -0.12566 0.17415 0.15444 0.068094 0.12106 -0.26323 0.35176 -0.43509
slave -0.46195 0.43805 -0.013009 -0.030994 -0.22997 0.010942 -0.77733 -0.17323 -0.39196 -0.14768 -0.60064 0.45763 0.39467 0.11185 -0.73382 -0.18406 0.0033119 -0.56005 0.567 -0.8141 -0.37342 0.8223 -0.049548 0.26576 0.45067 0.33776 0.02309 -0.1511 0.12683 0.34389 -0.26927 -0.0075487 -0.18527 -0.13771 -0.11545 0.0062894 -0.2425 0.018755 0.17331 -0.046164 -0.26495 0.60437 0.20315 -0.58142 -0.020263 0.35131 0.1651 0.19901 -0.31371 -0.32935 0.066155 -0.024573 -0.094723 -0.12454 0.59938 0.20968 -0.13255 0.24973 -0.47411 -0.017248 0.80265 0.086344 0.1482 -0.18268 0.90105 -0.18223 0.39267 -0.60321 -0.7516 -0.66106 0.15202 0.48296 0.59852 -0.47803 -0.079998 0.31397 -0.66336 0.13288 0.11087 -0.24803 0.32432 -0.19824 -0.032055 0.17137 -0.089362 0.20037 0.29973 0.52299 -0.15264 -0.17478 -0.12777 -0.68214 0.25462 0.42284 0.18993 -0.1323 -0.27948 -0.11067 0.37795 0.44501
string -0.1865 0.075651 -0.31915 0.5236 -0.16396 0.21162 -0.027024 -0.51028 -0.0045582 -0.16915 -0.051513 -0.018987 0.24168 0.24683 -0.034654 -0.46114 0.29587 -0.32266 -0.34579 -0.093378 -0.39798 -0.10924 -0.10139 0.40244 -0.37021 0.26461 0.059565 0.48155 0.050667 -0.19611 -0.29923 -0.76866 0.15999 0.043466 0.10626 -0.25173 0.31412 -0.14817 -0.18782 0.15132 -0.34527 0.33521 -0.18157 0.24851 0.039037 -0.11976 0.44285 0.94747 0.28092 -0.44727 0.31978 -0.14893 0.31712 0.70806 0.22738 -0.12821 -0.039295 -0.15682 -0.20223 0.29362 0.019559 0.057795 -0.29423 0.11469 -0.028251 0.29802 -0.28505 0.022218 -0.021406 -0.052448 0.25623 0.287 0.34802 -0.23039 -0.2615 0.34894 -0.20935 0.1202 -0.070929 0.34997 0.084184 0.25932 0.11367 0.16097 0.43962 0.14264 0.083175 0.68005 0.28278 -0.34236 0.36199 -0.56679 0.4551 0.1702 0.43457 -0.41779 -0.40747 0.0030568 0.21146 0.021332
interview -0.069943 -0.026728 0.8381 0.10912 0.25699 0.054059 0.025877 0.1243 -0.31019 -0.013023 -0.10644 0.35852 -0.45924 0.55924 0.43987 -0.29427 -0.23875 -0.35563 -0.48819 -0.25014 0.37644 -0.088678 0.14155 -0.53977 -0.35841 0.29047 0.1737 0.17729 0.024455 0.11086 -0.071134 0.10982 0.05541 -0.16188 -0.62142 -0.22674 0.069886 0.16604 0.01067 -0.1609 0.18804 0.81127 0.16506 -0.3182 -0.1036 -0.39025 0.1373 0.31397 0.501 -0.21427 -0.089631 -0.54677 0.0034065 0.25013 0.12383 -0.22725 0.086937 0.44823 -0.056506 -0.0073549 0.67273 -0.2519 0.56244 0.47233 -0.005493 -0.36595 -0.55656 -0.092514 0.48966 -0.29287 0.47397 -0.15728 0.67267 -0.035151 -0.34211 -0.39408 -0.1935 0.50095 0.03402 0.40303 0.3942 -0.40542 0.28392 -0.035693 0.15876 0.15114 0.066909 0.48469 -0.068764 -0.36913 0.3931 0.31512 0.49784 0.45364 -0.19598 -0.18413 0.40006 0.22807 0.27958 -0.34104
fertility -0.081605 0.39871 0.38072 -0.33301 0.15647 -0.8865 -0.30468 -0.278 -0.18205 -0.71449 -0.77836 0.36397 -0.20398 0.14159 -0.29865 -0.49951 -0.45175 0.0067427 -0.35823 -0.31384 -0.043379 -0.1757 -0.15617 0.1435 0.12076 0.033557 1.0303 -0.02498 -0.39154 -0.32122 0.037319 0.26877 -0.047231 0.12297 0.29456 0.029862 -0.096111 -0.24143 0.24776 0.23535 -0.31505 0.23211 0.52217 -0.61807 0.64718 -0.032832 -0.29002 0.54983 -0.075659 0.43301 0.11368 0.46159 -0.47857 0.50615 -0.33613 0.05495 0.27148 -0.3399 0.12172 0.63591 0.78914 0.20837 0.49902 0.17951 0.63734 -0.23506 -0.39844 -0.31914 -0.27163 -0.27126 -0.16255 0.14607 0.28781 -0.61845 -0.0097928 0.38099 -0.25905 0.057986 -0.5304 0.13457 0.040249 0.027319 0.39011 -0.18576 -0.33497 0.27108 0.03945 -0.34393 0.20473 0.32968 0.15394 -0.018311 0.011828 0.14282 -0.080817 -0.077085 -0.40698 0.092028 0.021631 0.061322
israel 0 0 0 0 0 0 0 0 0 0 0 0 0 0 0 0 0 0 0 0 0 0 0 0 0 0 0 0 0 0 0 0 0 0 0 0 0 0 0 0 0 0 0 0 0 0 0 0 0 0 0 0 0 0 0 0 0 0 0 0 0 0 0 0 0 0 0 0 0 0 0 0 0 0 0 0 0 0 0 0 0 0 0 0 0 0 0 0 0 0 0 0 0 0 0 0 0 0 0 0
viewer 0.094879 -0.18656 0.23478 -0.17555 -0.45925 -0.082009 -0.018023 0.52447 -0.014116 0.48814 0.225 0.37511 -0.20538 0.32423 0.26863 -0.37849 0.31475 -0.48367 -0.32905 -0.047782 0.01022 -0.36499 -0.43768 -0.31104 -0.4665 0.18428 0.1089 -0.24561 0.27198 0.49267 0.081385 0.58913 0.070442 -0.11036 -0.17258 -0.23323 -0.26801 -0.71603 -0.47631 -0.18872 -0.65078 0.25598 0.51989 -0.50617 -0.15877 -0.41654 -0.20791 0.45664 0.50421 0.10673 0.13666 0.16643 -0.09776 0.28176 -0.52874 -0.34099 -0.026902 -0.15785 0.18827 0.13847 0.59332 -0.43907 0.71868 0.094922 0.31963 -0.35371 -0.5975 -0.1325 0.09442 0.077331 -0.45734 -0.095839 0.8222 0.41588 -0.4591 0.11499 0.38109 -0.34859 -0.28827 0.04063 0.57113 -0.74514 0.51732 0.35136 0.35612 0.28428 -0.27235 -0.54498 -0.025021 -0.094144 0.26413 -0.15968 0.49022 0.021182 -0.17147 0.024472 0.049349 -0.43472 0.26263 0.19961
culture -0.15969 0.0056593 0.30739 -0.092834 0.19943 0.27454 -0.3769 -0.055954 -0.39449 -0.20264 -0.101 0.37717 0.16391 0.065241 0.5026 -0.256 -0.055942 -0.5695 -0.2865 -0.1854 -0.12028 -0.15443 -0.20492 0.18865 -0.3336 -0.20849 0.21632 -0.28889 -0.068838 -0.19861 -0.38635 0.28608 -0.32865 -0.30484 -0.456 -0.21295 -0.0012845 -0.21837 0.063148 -0.52403 -0.25807 -0.017446 0.19525 -0.13865 0.16105 0.12591 0.33931 0.51024 -0.16694 0.24084 0.77793 0.060596 0.11793 0.60299 0.31211 0.061891 0.23228 0.33828 0.11005 0.019226 0.5199 0.34801 0.37435 -0.16356 0.78693 -0.13328 -0.27179 -0.7661 -0.38008 -0.16723 0.40381 0.54846 0.79115 -0.12763 -0.50607 0.37649 0.0056485 0.070678 -0.361 -0.64024 0.47124 0.10938 -0.39484 -0.0017755 0.050819 -0.033979 -0.73084 -0.50123 0.26043 0.0032089 0.18682 -0.30172 0.45084 0.28278 0.23168 0.22191 0.35856 0.011172 -0.2166 0.26862
coffee -0.073418 -0.093588 0.19033 0.14587 0.57943 0.22963 -0.73748 -0.50388 -0.010277 -0.062748 -0.50151 0.39958 0.27559 -0.31005 -0.22069 -0.33511 0.044174 -0.41574 -0.24604 -0.73704 -0.37619 -0.10303 -0.53617 0.40773 -0.26521 -0.4338 0.19991 0.69722 0.21627 0.245 -0.070885 0.53046 -0.020076 -0.36693 0.20493 0.069421 0.071884 -0.029588 0.4519 0.02536 0.68722 0.56379 0.57778 -0.31498 0.51084 -0.068277 0.19451 0.21913 -0.010907 -0.10623 -0.3009 -0.027349 -0.38342 -0.12904 0.21043 0.9905 -0.12458 -0.20285 -0.21709 0.16909 0.40368 -0.56186 0.39235 -0.31892 0.40011 0.45468 -0.43809 -0.25547 -0.82311 -0.57674 0.40812 0.014145 0.40427 -0.072173 -0.47935 -0.024484 -0.16481 0.031174 0.16872 -0.10757 0.272 -0.22682 0.15918 -0.30247 0.33957 0.070176 0.15061 0.063633 -0.23389 0.40341 0.31293 -0.60497 0.52148 0.19954 0.13893 0.050567 -0.036724 -0.16122 0.26029 0.083687
personnel -0.060474 0.14155 0.24584 0.20294 0.098377 0.20991 0.11892 -0.40584 0.66661 0.34884 -0.63412 0.082832 0.16257 0.09696 0.20863 0.056611 -0.017692 0.092369 -0.31298 -0.067745 0.48863 -0.18799 -0.39661 -0.14506 0.0859 -0.53787 0.026888 -0.32554 0.019567 0.14208 -0.16036 0.098484 -0.19504 0.46824 -0.091373 -0.65342 0.41325 0.12005 -0.13444 -0.33158 -0.69688 0.65436 0.07797 0.28 0.21745 -0.023097 0.5468 0.57332 -0.63572 -0.2101 -0.19163 -0.23709 0.064418 0.14918 -0.49548 0.15692 0.44795 0.20134 0.42165 0.12542 0.81798 0.16511 -0.33112 -0.24792 0.10304 -0.41323 0.0059031 -0.14476 -0.040076 -0.36031 -0.26521 0.32667 -0.11461 -0.028507 0.10331 0.38448 -0.22602 -0.04088 -0.05512 0.10034 0.51325 0.421 0.79277 -0.1536 -0.48547 0.084836 -0.72182 0.28534 -0.29627 0.14459 -0.29323 -0.29591 0.33093 0.22782 -0.17331 0.25958 -0.21016 -0.40939 -0.075881 0.12587
hypertension -0.37419 0.27104 0.11769 0.073786 -0.088715 -0.39877 -0.46996 -0.027962 0.081641 -0.10329 -0.64324 0.69843 0.1406 -0.27957 -0.017107 -0.10761 -0.038212 -0.48846 -0.41843 -0.24184 0.36067 -0.5071 -0.4434 0.04092 0.067359 0.39434 0.80142 0.26577 -0.36211 -0.10458 -0.58967 0.7115 0.15974 0.39828 -0.31759 -0.17728 0.16747 -0.21156 0.23823 -0.1858 -0.060334 0.51755 0.33863 -0.12389 -0.22041 0.22095 0.1417 0.56877 0.31581 0.31525 -0.11856 0.26055 0.22222 0.62222 -0.06082 0.25454 0.43234 -0.78818 0.2498 0.24942 0.2756 -0.099779 0.41643 0.27428 0.73243 -0.52362 -0.4736 0.11573 -0.40825 -0.15884 -0.17514 0.03578 0.3934 -0.59435 0.087718 0.48482 0.067479 0.23549 -0.12725 0.088747 0.43322 -0.089038 0.24591 -0.19836 -0.1258 -0.24425 -0.076666 -0.2919 0.34651 0.2312 0.052751 0.19851 0.16926 -0.15803 -0.45221 -0.061228 -0.37274 -0.15357 0.47175 -0.046863
boy -0.31203 0.21436 0.48942 0.56406 0.12218 -0.12184 -0.30324 -0.24566 -0.13413 0.22484 -0.44901 0.28331 0.0071548 0.17674 0.44772 -0.054654 0.37786 -0.38111 -0.42264 -0.14892 -0.25341 -0.048071 0.31174 0.22343 0.21651 0.35793 0.62322 0.34163 0.3053 0.090529 0.44204 -0.6419 0.20095 -0.5806 -0.23752 0.026819 -0.38811 0.014044 0.014867 -0.04959 -0.34073 0.54326 0.011626 -0.1777 0.29853 0.6277 -0.045175 0.31907 0.24598 -0.20607 0.29538 0.16939 0.69122 0.35059 -0.45812 -0.12116 -0.28712 -0.086388 0.041315 0.47348 0.60952 -0.1242 0.01845 0.10951 1.0507 -0.69045 0.27695 0.23181 -0.38074 -0.65734 0.19953 0.094326 0.044787 -0.35078 -0.31704 0.36885 0.097969 0.31494 -0.077449 -0.080425 0.35072 -0.34057 0.10491 0.2057 0.29278 0.14988 -0.1268 -0.098624 -0.05276 0.16461 0.17546 -0.29656 0.31945 -0.23467 -0.30389 0.20614 -0.83409 0.016502 -0.25368 -0.03427
bed -0.11798 -0.014033 0.21047 0.4594 0.48585 -0.24241 0.20511 0.090251 0.083959 0.47127 0.018174 -0.085555 0.055193 0.14027 -0.048036 -0.13525 -0.0014102 -0.49842 -0.48613 -0.58039 -0.036135 0.062242 0.12617 -0.21283 0.63899 -0.0077262 0.48821 0.61827 -0.07363 0.35985 0.26022 0.1531 0.44682 -0.12759 -0.41501 0.17335 -0.097018 -0.49765 -0.32853 -0.12276 0.54351 0.69519 0.28195 -0.58193 0.68497 0.16215 -0.019234 0.11168 -0.054098 -0.24877 -0.19148 0.090856 0.24023 0.31352 0.057105 -0.10067 -0.24387 -0.2593 -0.1392 0.12876 0.39668 -0.1315 0.84659 0.0742 0.3669 -0.1408 -0.18404 -0.11127 -0.44953 -0.50227 -0.11704 0.39459 0.23799 -0.055756 -0.94878 0.54506 -0.28962 0.179 -0.26292 0.13098 0.65469 0.11474 0.17485 -0.4856 0.29131 0.18324 -0.25783 0.52467 -0.25391 0.2267 -0.22627 -0.13481 0.07462 -0.38767 -0.22826 0.0075107 -0.31013 0.0835 -0.12956 -0.16278
equality -0.20857 0.38722 -0.073668 -0.50835 -0.022327 -0.5218 -0.42648 -0.36732 0.023293 -0.062596 -0.48646 -0.075801 -0.17307 0.14538 0.50782 0.01811 -0.00095921 -0.28248 -0.17328 -0.010046 0.36448 -0.33433 -0.20692 0.28101 -0.25624 0.14982 0.099361 -0.68449 -0.44255 -0.017801 0.23966 0.22845 0.056283 -0.21644 -0.80367 -0.26355 -0.2455 -0.28176 -0.011553 -0.027959 -0.21969 0.050886 0.22451 -0.3272 0.34586 0.1662 0.046197 0.46186 -0.29553 0.69641 0.71808 -0.11609 -0.36532 0.50853 0.077971 0.3501 -0.0063977 0.46112 0.012681 -0.31927 0.95565 0.22709 -0.2409 0.16043 0.22788 -0.037577 -0.56961 -0.40554 -0.53681 0.026002 -0.19406 -0.17717 0.79018 0.16938 -0.39262 0.39444 -0.094805 0.24355 -0.055409 -0.17001 -0.08551 0.42809 0.31357 0.48171 0.031826 0.46206 -0.16204 -0.45072 -0.17063 -0.021095 -0.044922 -0.19229 0.43329 0.010246 -0.097326 0.31974 0.010211 0.20942 0.16396 -0.023685
disability -0.57997 0.47614 0.26576 0.1433 -0.55495 -0.35853 -0.15627 -0.5089 0.68281 0.2017 -0.25887 0.24934 -0.20463 0.40897 0.22909 0.22115 -0.32957 -0.19263 -0.19472 -0.31367 0.43277 -0.22611 -0.33188 0.27569 -0.11621 0.28396 0.55865 -0.72103 -0.78851 -0.46106 0.1662 0.48864 0.21107 0.42724 -0.43105 -0.042215 0.21078 0.063103 -0.035634 0.32141 -0.72937 0.55389 0.6103 -0.88682 0.11334 -0.048187 0.36055 0.27585 0.29665 0.53207 0.5739 0.18585 -0.20516 0.24929 -0.49697 0.064643 -0.027027 -0.35123 -0.027326 0.027354 1.1946 -0.026152 -0.14992 0.02496 0.45863 -0.55402 -0.10765 -0.11173 -0.087703 -0.19594 -0.0978 0.24221 -0.34471 -0.0024569 -0.34164 0.61858 -0.23652 0.041264 -0.35442 0.30982 0.048529 0.44954 0.12334 0.16166 -0.20517 0.44814 -0.046303 0.11125 0.5057 0.11979 -0.039221 0.52775 0.061062 -0.18006 -0.3556 0.0076592 -0.29045 -0.38285 -0.16074 0.13281
depression -0.16202 0.13342 0.27179 0.35805 -0.18306 -0.22557 -0.39755 0.086493 0.23942 0.040255 -0.7624 0.38597 -0.056481 -0.032887 -0.18223 -0.10735 0.11355 -0.20144 -0.2358 -0.15547 0.16556 0.17532 -0.44095 -0.11679 0.089366 1.2665 0.98613 0.5823 -0.25127 0.18697 -0.13712 0.69006 0.20864 0.18041 -0.41291 0.090717 0.31064 -0.33295 -0.10788 0.10462 -0.48682 0.26228 0.37329 -0.51171 -0.055828 0.047698 0.020484 0.33774 0.28925 0.37251 0.44018 0.16856 0.21058 0.65766 0.18623 0.54434 0.23153 -0.63634 0.17141 0.43655 0.12145 -0.043659 0.36059 0.093596 0.8662 -0.30359 -0.66808 -0.015903 -0.21699 -0.25553 0.15626 0.51409 0.17682 -0.13405 0.28261 0.54121 0.14286 0.26648 -0.39965 -0.44679 0.62947 0.049275 0.17819 0.07684 -0.21937 0.24602 -0.15683 -0.054023 -0.080313 -0.060445 0.2822 0.090059 0.17151 -0.29501 -0.27132 -0.10083 -0.010131 -0.18891 0.41735 0.40841
war -0.31082 0.57733 0.3871 0.32251 -0.31267 -0.21498 -0.13377 0.26479 0.41628 0.3549 -0.61346 0.0076915 0.35278 0.44791 0.23216 0.18276 0.0022108 -0.41045 -0.16138 -0.249 -0.00040346 0.39592 -0.38023 0.38085 0.019606 0.42574 -0.0084803 0.035511 0.30127 0.43392 0.036637 0.67819 0.41485 -0.045903 -0.17925 -0.72037 0.018175 -0.15239 0.044665 -0.17626 -0.24497 -0.0028687 -0.12286 0.30241 0.43679 -0.53781 -0.18242 0.68164 0.077604 -0.1861 0.19988 -0.42415 -0.054687 0.31347 0.10518 -0.20682 -0.30558 0.18068 0.079344 0.11464 0.60558 0.54877 0.17831 0.14486 0.49873 0.09578 0.057085 -0.39531 0.0067517 -0.30118 -0.055181 0.51792 0.77256 0.22992 0.54897 0.47666 -0.45418 0.11141 0.057053 0.22486 0.45307 -0.13986 0.32699 0.33293 -0.13066 -0.18313 0.034325 0.63928 0.024693 -0.56087 -0.077795 -0.71308 0.3351 0.073457 -0.37335 0.072535 0.48845 0.22324 0.47712 -0.0063214
number -0.39578 0.087175 -0.026534 0.44934 -0.23076 -0.35326 -0.47094 -0.46138 0.45526 0.070831 0.073031 0.080354 -0.31591 0.43541 0.35407 -0.3808 -0.26167 -0.27398 0.092357 -0.11088 0.13417 0.13279 -0.12732 -0.17634 -0.023114 -0.31177 0.32938 0.05478 -0.076425 -0.38434 -0.12004 0.053871 0.023839 -0.31504 0.37095 -0.45204 0.42769 -0.013304 0.063817 -0.15909 -0.039479 0.0927 0.040328 0.24627 -0.046081 -0.27983 0.39689 0.77641 -0.13533 -0.043368 0.018246 -0.17704 0.17608 0.51704 0.34429 -0.15312 0.47253 0.15443 -0.11714 0.30168 0.6074 -0.47874 -0.15436 0.23422 0.11851 0.12755 -0.42456 -0.13074 -0.011339 -0.10916 -0.48444 -0.29189 -0.29271 0.17926 0.085412 0.38629 -0.16704 0.32249 0.048321 0.2804 -0.11174 0.10872 0.32787 0.060679 0.45667 0.41406 -0.20418 0.1205 0.42497 0.0021679 0.13931 -0.065102 0.36985 -0.16929 0.14846 -0.31361 -0.34415 -0.60612 0.16472 0.46056
government -0.32983 0.076637 -0.049054 0.15716 0.024454 -0.019379 -0.1188 -0.26896 0.21981 -0.24011 -0.56668 0.095813 -0.25532 0.3628 0.36825 0.033075 -0.067003 -0.27306 -0.58487 -0.28253 0.0032071 -0.23089 0.23215 0.21607 0.18311 -0.14776 0.38133 0.020401 -0.35388 0.011155 -0.076797 -0.11053 -0.11305 -0.32678 0.10065 -0.66098 0.13453 -0.25996 0.15379 0.1253 -0.40026 -0.19372 -0.21469 0.17662 -0.17393 0.11356 0.096338 0.24331 0.022455 0.057085 0.20314 -0.52985 -0.2666 0.16715 0.1989 -0.23641 -0.16976 0.41482 0.18511 -0.11841 0.40549 0.058295 -0.042585 -0.17735 0.47067 -0.21703 -0.21577 -0.17683 -0.073465 -0.18411 0.03965 0.43293 0.36487 0.26229 -0.091257 0.22005 0.15244 0.46176 -0.072914 0.47616 0.4714 0.075436 0.080098 0.1737 -0.33874 -0.23145 -0.67743 -0.16407 -0.079353 0.15527 0.15294 -0.69959 0.088355 0.32305 0.069173 0.15463 -0.18046 -0.24606 0.4857 -0.36455
reservation -0.063991 -0.45514 0.14513 0.12038 -0.043392 -0.24533 -0.26921 -0.4719 -0.28503 0.03448 -0.40967 0.15231 -0.12234 -0.18706 -0.047249 -0.080203 -0.46301 -0.59017 -0.18539 -0.54426 0.24213 0.24198 -0.02846 -0.17881 0.097522 -0.44302 0.2691 -0.064996 0.11867 0.10765 -0.26005 0.16591 -0.55731 0.58958 -0.099281 -0.21892 0.14811 0.2055 -0.093696 0.44495 -0.52241 -0.032223 0.038215 -0.33932 0.33249 -0.094758 0.074058 0.16509 0.057555 0.10874 0.09718 0.056134 -0.27844 0.51004 -0.2802 -0.0718 -0.10981 -0.013455 -0.22802 -0.24981 0.36708 -0.33592 0.045864 -0.055553 0.2412 -0.016639 -0.33525 -0.10996 -0.29177 -0.15518 -0.24247 0.031525 0.071205 0.16221 -0.19409 0.093902 -0.49027 0.046603 -0.0346 0.31892 0.16926 -0.13467 0.60993 0.027612 0.17322 -0.41216 -0.3984 0.16898 -0.20565 -0.10242 -0.37478 -0.070106 0.40602 -0.042219 0.093531 -0.11061 -0.11968 -0.21342 -0.13258 -0.16579
tennis -0.30236 0.05755 0.45059 0.43504 0.96669 -0.06544 -0.26682 -0.61703 0.14212 -0.36069 -0.72689 0.19956 0.041527 0.22409 0.44441 -0.22613 0.32828 -0.5227 0.026082 -0.25715 -0.34698 0.1555 -0.68739 0.36486 0.10365 0.0090508 0.38024 -0.46603 -0.16468 -0.056269 -0.46547 -0.28699 0.32349 -0.79939 -0.1556 -0.070512 -0.28723 -0.32807 -0.14515 -0.25074 -0.44386 0.23706 -0.019563 0.32614 0.20394 -0.91085 0.56418 0.076828 0.4326 -0.14808 0.087587 0.11338 0.21855 0.31167 -0.5181 -0.038655 0.46854 -0.54897 -0.2084 -0.10493 0.15014 -0.13528 0.39656 -0.028627 -0.071311 -0.26916 -0.14427 -0.22826 -0.19352 -0.04039 0.4304 -0.16177 0.40448 0.61585 -0.58117 0.28819 -0.10639 0.062399 -0.093546 -0.0084703 0.036583 0.065094 -0.10201 -0.15904 0.29577 0.72536 -0.076181 0.095996 -0.06458 0.96478 -0.37345 -0.059495 1.0886 0.14919 -0.067713 -0.39082 0.093054 -0.13993 -0.38818 0.89442
office 0.15262 -0.2525 -0.11865 0.46095 -0.14873 0.22662 -0.38985 -0.26012 0.29733 -0.22836 -0.26008 -0.4779 -0.088985 0.28345 0.046854 -0.27864 0.1932 -0.17508 0.0089708 -0.38039 -0.039326 -0.47589 0.071714 0.19804 0.018848 -0.85965 0.63918 0.28102 0.14101 0.22669 0.080025 0.1213 0.50158 -0.08954 -0.66108 -0.54811 0.001164 0.20054 0.70342 0.031388 0.024157 0.061014 0.035796 -0.14787 0.055236 -0.13747 0.18361 0.31122 -0.15178 0.10313 -0.033404 -0.3706 -0.41292 -0.096437 0.0049442 -0.077138 -0.14512 0.19555 -0.011685 0.30859 0.73209 -0.38126 0.26963 -0.15017 0.1074 -0.59988 -0.14617 0.074509 -0.035948 -0.30217 0.22614 0.30439 0.2871 0.01863 -0.0087908 0.41865 -0.047341 0.57743 0.43367 0.055868 0.63409 -0.34353 0.29178 -0.083175 0.43394 0.056725 -0.51574 0.34101 0.092179 0.014377 -0.2259 0.024809 -0.11886 0.26667 -0.075071 0.085934 -0.057957 0.053136 0.0081793 -0.1461
hotel -0.47414 -0.35855 -0.054513 0.59167 0.34726 0.43763 -0.62727 -0.0194 -0.19312 0.35972 -0.047869 -0.23868 -0.19327 0.31668 -0.14667 -0.09856 -0.071394 -0.11672 -0.51039 -0.45139 -0.55312 0.0441 0.082386 0.0032883 0.10355 -0.59016 0.7554 0.39715 0.45524 0.16277 -0.029649 -0.19603 -0.2451 -0.094742 -0.1041 -0.045188 0.26921 0.29085 -0.13693 0.28221 0.032402 0.55366 -0.3683 -0.46984 0.6693 -0.35019 0.073791 0.11959 -0.1202 0.034537 -0.14734 0.040055 0.17027 0.092836 -0.11 0.23176 0.29014 0.17271 0.069234 0.15064 0.49701 -0.46064 0.8056 -0.12301 0.078159 0.083142 -0.0072549 0.0063476 -0.020722 -0.33417 0.14142 0.2468 0.05658 0.27655 -0.22586 0.80971 -0.10468 0.11559 0.14061 -0.058078 0.30188 0.10874 0.42046 -0.22793 0.54778 0.15662 -0.53784 0.60312 -0.36744 -0.050262 -0.35132 0.066794 0.80043 0.51167 0.16202 -0.22217 -0.10606 -0.17596 0.020021 -0.36124
terror -0.4868 0.94227 0.36273 -0.3633 -0.56064 -0.039632 -0.11491 -0.13903 0.23997 0.13575 -0.13977 0.010011 0.10218 0.17999 0.48294 -0.033211 -0.36542 -0.39688 -0.39278 -0.62894 -0.20557 0.36767 0.21038 0.61851 -0.31541 0.15421 0.22008 0.50719 -0.29872 0.21211 -0.066322 -0.037672 0.19708 0.14027 -0.23995 -0.45305 0.33061 0.20507 -0.30978 -0.38966 -0.28486 0.13991 -0.85073 0.51205 0.40693 -0.14059 -0.32366 0.56499 -0.13177 -0.26569 -0.2472 -0.28583 0.062644 0.52826 -0.2659 -0.13664 0.14048 -0.25065 0.031497 0.09753 0.5899 0.025699 0.39284 -0.56546 0.26413 0.14436 -0.46353 0.15446 0.27545 -0.51026 -0.6531 0.48381 0.82554 0.44921 -0.23672 0.23128 0.060956 0.24429 0.21042 -0.039852 0.68007 0.099008 0.47388 0.80432 -0.063389 -0.45711 -0.124 0.30696 0.3244 -0.14659 0.17266 -0.36757 0.4491 0.24047 -0.13255 -0.47057 0.20643 -0.25238 0.015234 0.034253
citizen 0.26796 0.19019 0.46894 0.087661 -0.26115 -0.0054007 -0.20016 0.0244 -0.24231 0.033476 -0.80694 1.0855 -0.48183 0.65158 0.48551 0.18771 -0.060437 -0.3461 0.027801 -0.27289 0.032922 -0.23332 0.29696 0.15916 0.61884 0.052784 0.13348 -0.091087 -0.020792 -0.022083 0.097224 -0.038938 -0.13022 0.13199 -0.22992 -0.44698 -0.42435 0.20831 0.1124 -0.39822 -0.35204 -0.019131 -0.11503 -0.14017 -0.17468 -0.079793 -0.059582 0.66514 -0.47674 0.05209 0.48384 -0.48734 -0.052667 -0.42583 -0.28828 -0.18406 -0.068147 -0.015764 -0.27844 0.30678 0.78603 0.084527 0.2779 -0.29283 1.1065 -0.16605 -0.73212 0.08321 0.063276 -0.15389 -0.097146 0.48013 0.1549 0.18468 -0.17446 0.47979 -0.24322 0.052917 0.42444 0.13502 0.1387 -0.16131 0.15156 0.15524 0.10993 0.44568 -0.38363 0.1476 -0.12519 0.48739 0.33375 -0.39968 0.10276 0.70931 0.11573 -0.084639 -0.28575 -0.27904 -0.050145 -0.1726
student -0.61472 -0.087616 0.042369 0.41805 -0.10538 0.28485 0.11169 -0.059153 -0.32862 0.091144 -0.51738 0.72257 -0.14571 0.22967 0.53551 -0.081248 0.38653 -0.24776 -0.32688 -0.33851 -0.52194 -0.42162 0.19328 -0.13859 -0.13244 0.010782 0.73227 -0.14002 -0.3367 -0.35272 0.20619 0.080997 -0.44606 -0.05558 0.0013554 -0.20211 -0.41185 -0.13209 0.2428 -0.11883 -0.69326 0.48387 0.24309 -0.3786 -0.30937 -0.6423 0.23191 0.012864 -0.42073 0.23266 0.32618 -0.51335 0.26493 0.52213 -0.48593 0.022336 -0.27128 0.52271 -0.086286 -0.094141 0.56805 0.09986 0.26411 -0.1552 0.95973 -0.016477 0.022071 0.37378 0.024929 -0.17548 0.46337 -0.27215 -0.028138 -0.57324 -0.2549 0.44363 0.0051124 0.37312 -0.071099 0.34171 -0.35739 0.10898 0.23253 -0.15065 0.31016 0.50311 -0.37396 -0.22005 -0.35143 0.16422 -0.15135 -0.14856 -0.22063 0.31853 0.37392 -0.31489 -0.82757 0.0091915 -0.14881 0.043336
energy -0.47779 -0.015523 0.016211 -0.10206 0.43839 -0.41336 -0.082306 -0.080614 0.020495 0.079651 -0.65515 0.19105 -0.28365 -0.55466 0.13546 -0.49419 -0.26128 -0.055442 -0.30972 -0.17481 0.04195 -0.60415 -0.2136 0.094962 -0.1505 -0.37942 0.97026 0.19756 -0.27019 -0.019312 0.14044 0.45473 -0.24323 0.26735 -0.22769 -0.0658 -0.14019 -0.40692 0.021954 0.20013 0.18786 -0.55005 0.066655 0.085519 -0.098465 -0.27023 -0.20069 0.23004 -0.12836 0.2688 0.46107 0.14059 -0.59715 0.41687 -0.24495 -0.021647 -0.015213 0.45776 -0.32769 0.0068245 0.27372 0.070501 0.72479 0.17402 -0.15063 0.47709 -0.54897 -0.53905 -0.15214 -0.80737 0.065825 -0.1219 0.16673 -0.013796 -0.30046 0.4588 0.33954 -0.16997 -0.30732 0.24195 0.36348 0.065837 0.3018 0.25245 -0.4639 0.37554 -0.89141 0.80403 -0.070215 0.60489 0.077272 -0.71163 -0.032288 -0.0037542 0.19055 0.20115 0.38079 -0.17721 0.13579 0.28267
radio -0.48804 0.48561 0.77874 0.16021 0.10994 0.58243 0.024946 0.027123 -0.37556 0.15299 -0.090259 0.11217 0.099598 0.42505 0.71003 -0.44582 -0.26675 -0.52512 -0.49925 -0.72094 0.46604 0.20438 -0.54146 -0.25534 0.079903 -0.23788 -0.1676 0.16708 0.06783 0.024685 -0.44207 0.0505 0.020445 0.24523 -0.25955 -0.47084 -0.087185 -0.073422 -0.0529 -0.70908 -0.47459 0.48025 0.42337 -0.5292 -0.1762 -0.27153 0.24464 -0.040934 0.49721 -0.062411 0.075619 -0.081704 -0.496 0.38039 0.033264 -0.5413 0.077984 0.29379 -0.30518 -0.24217 0.072247 -0.16566 0.5297 -0.036548 0.20057 0.091961 -0.64262 0.14697 0.004716 -1.0174 -0.23493 -0.24446 0.037711 0.32172 -0.28518 -0.20099 0.34857 -0.066425 -0.35587 0.067459 0.62156 -0.6104 0.52741 -0.3302 0.24257 0.22671 -0.087028 0.51067 -0.28843 -0.4053 0.31294 -0.043395 0.052873 0.65588 0.23495 0.069211 0.18595 -0.25004 0.40835 0.30658
block 0.23157 -0.1174 0.013507 0.49921 -0.51173 -0.13279 -0.20874 -0.074562 0.16625 -0.19231 -0.073079 0.076433 0.26166 0.10738 -0.21841 -0.67554 0.14674 0.2142 -0.58028 -0.054075 -0.087425 -0.25063 -0.094972 0.043121 0.71668 -0.19756 0.79585 0.25561 -0.10344 -0.22314 -0.085285 0.33569 0.11165 -0.13901 -0.44608 -0.24557 0.095378 0.21178 -0.56359 -0.13553 -0.26531 -0.083893 -0.083763 -0.22211 -0.36081 0.023681 0.23032 -0.19656 -0.34687 -0.050326 -0.048687 0.12276 -0.1337 0.25775 -0.27561 -0.037724 -0.34275 0.27018 0.10733 -0.13912 0.16509 -0.45084 0.15334 0.26349 -0.070295 -0.11938 0.010481 0.16198 -0.5679 -0.37228 -0.039805 0.21186 0.14384 0.072377 -0.57901 0.3393 0.076011 0.12047 0.36498 0.1329 0.17276 0.24081 0.58447 0.21627 0.52318 -0.12502 -0.13449 -0.035963 0.49869 0.032373 -0.51877 -0.52857 0.13583 -0.30518 0.26106 0.082719 0.20138 -0.46589 0.63407 -0.049658
popcorn -0.27551 -0.42709 -0.078762 0.37579 0.46404 0.028402 -0.21491 -0.17297 -0.30777 -0.48985 -0.16286 0.5738 0.27106 -0.197 -0.69717 -0.37924 0.048514 -0.44883 0.057815 -0.37332 -0.15267 -0.17701 -0.61371 0.19117 -0.1126 -0.2137 0.03087 0.30787 0.35122 0.49508 -0.21968 0.27505 0.27863 -0.24556 0.11743 0.021861 0.20498 -0.19385 -0.041581 -0.47186 0.35635 0.36799 0.49348 -0.44217 0.22437 -0.29052 -0.044476 0.36743 0.29242 0.069522 -0.20781 0.23515 0.13541 0.51746 -0.25504 0.53445 -0.00062536 -0.38903 -0.031458 0.92889 0.30058 -0.042395 0.3756 0.05626 0.46697 0.065775 0.085462 0.10825 -0.68162 -0.86412 -0.0081283 -0.36775 0.67348 -0.049429 -0.23655 0.06274 0.09794 -0.34197 -0.211 0.061102 0.6539 -0.22829 0.22313 -0.013202 0.37552 -0.22906 -0.02186 -0.043977 0.065109 0.22819 -0.023005 -0.5249 0.32973 -0.060705 0.057321 -0.044416 -0.37638 -0.39032 0.096524 0.25143
maker -0.10272 -0.64012 -0.47153 0.35647 0.27537 0.09911 -0.23886 -0.35255 -0.15099 -0.54489 -0.50909 0.74717 -0.12835 0.22305 -0.24821 -0.68768 0.15892 -0.097748 -0.70281 -0.2325 0.51 -0.25767 -0.38621 0.2205 0.063402 -0.63563 0.39737 0.1544 0.1492 0.15925 -0.18002 0.31406 -0.519 -0.32902 0.40163 0.31372 -0.55077 0.098822 0.96584 -0.75582 0.28163 0.36857 -0.0057679 0.14076 0.49841 -0.51097 0.22336 0.02128 0.73952 -0.618 -0.48135 -0.67059 0.28228 0.11829 -0.77724 0.085219 0.35107 -0.28336 -0.44366 0.81568 0.27709 0.44522 -0.25537 0.44196 0.69029 0.029091 0.023769 0.54639 -0.41125 -0.65252 0.35321 0.29852 0.024045 -0.12338 -0.4105 0.27213 0.7756 0.027499 -0.28839 0.53088 -0.060098 -0.43833 0.38712 0.37131 0.16954 -0.12146 0.011315 0.14967 0.26304 0.23339 0.63642 -0.90546 0.63476 -0.34227 0.71089 0.011553 0.086331 -0.072143 0.82739 -0.21005
clinic -0.039907 0.098807 0.061649 0.55838 0.48652 -0.11501 -0.0018077 -0.0015324 -0.23837 -0.033616 -0.5474 0.38323 -0.024145 0.41142 0.043806 -0.061935 -0.29904 -0.041674 -0.54611 0.04019 0.034613 -0.22119 -0.23885 0.33897 0.52301 -0.46789 0.72753 0.19525 -0.30734 -0.48546 -0.48483 0.43665 0.49636 0.26922 -0.30922 -0.40925 0.24215 0.12941 0.12803 0.40924 -0.30012 0.76969 0.058188 -0.2635 0.65379 -0.27136 -0.16291 0.17125 0.38439 0.13235 -0.064965 0.14495 0.054846 0.36169 -0.43421 0.45879 -0.020044 -0.15779 0.10721 0.17855 0.74739 -0.075796 0.41028 0.1012 0.80382 -0.55652 -0.3482 0.11763 -0.11546 -0.2911 -0.026834 0.685 0.1626 -0.15033 -0.17502 0.35068 0.20455 0.62007 0.61167 -0.082102 0.14943 0.097597 0.45167 -0.59735 0.16494 0.29905 0.17503 -0.033585 0.047843 -0.18128 0.10207 0.19951 -0.093798 0.30414 -0.36727 -0.032935 -0.48563 0.21422 0.15367 -0.70062
automobile -0.71196 -0.41364 0.46136 0.18807 -0.048391 0.38475 -0.41962 -0.35471 -0.057923 -0.040756 -0.40127 0.3313 -0.05792 0.41948 -0.054973 -0.61537 0.081422 -0.48195 -0.14737 -0.94292 -0.016444 -0.49135 -0.2085 0.0079722 0.09181 -0.11418 0.23104 -0.23848 -0.40474 0.0062361 0.25986 0.067399 0.10692 0.51062 0.29746 0.22797 0.19299 -0.41737 -0.0058595 -0.075577 -0.4343 0.32599 0.13949 0.13469 -0.077196 -0.17085 0.28626 0.37945 0.11538 0.47295 0.11105 -0.7277 -0.2561 0.19621 -0.44505 0.56982 0.19305 -0.058377 -0.20479 0.58974 0.22137 0.23442 0.057968 0.51221 0.24137 -0.25895 -0.012359 0.041458 -0.43245 -0.52792 0.25 0.090369 -0.52866 0.26497 -0.21223 0.37519 0.30839 -0.4917 -0.62692 0.54558 -0.36841 0.19137 -0.25827 0.024198 -0.60711 0.018185 -0.40708 0.5244 -0.28671 0.048403 0.078162 -0.60376 0.29448 -0.024382 0.11662 0.26164 0.093281 -0.082515 0.49733 0.30669
sun 0.0028571 0.046067 0.55503 0.2743 0.76735 -0.79937 -0.25462 0.43221 -0.48063 0.31959 -0.28419 -0.21158 -0.36559 -0.049009 0.037334 -0.59666 0.077609 -1.2258 -0.51949 -0.56901 -0.090035 -0.36408 -0.28145 -0.059293 0.070833 -0.31023 1.136 0.18896 -0.11362 0.23628 -0.08993 0.10494 0.23997 -0.35289 -0.69356 0.31252 0.44006 -0.85772 -0.38528 -0.11303 0.23996 0.059509 0.063044 -0.013376 0.19394 0.2109 -0.14716 -0.16926 -0.082095 0.1559 0.20549 0.062235 -0.27218 0.21863 0.13207 -0.078457 -0.054478 -0.483 -0.23668 0.16817 -0.21183 -0.37929 0.33498 -0.095798 0.44662 -0.037629 0.26919 -0.56701 -0.19075 -0.63464 -0.70894 0.011667 0.74006 0.36794 -0.22389 0.38101 0.088707 0.0017166 -0.020013 -0.0038645 0.72285 -0.1218 -0.58185 0.2335 0.083552 0.60374 -0.096944 0.73568 0.12496 0.59913 -0.46462 -0.17454 0.26208 -0.1074 -0.15244 -0.17173 -0.37491 0.045975 -0.16727 0.054465
possession -0.32578 -0.1235 0.01096 -0.46007 -0.51909 -0.24478 -0.43611 -0.4152 -0.20189 0.36377 -0.55675 0.1223 -0.49964 0.43344 -0.1981 -0.049619 -0.50999 -0.081654 0.13327 0.20143 -0.3008 -0.25016 -0.32377 0.43104 0.41997 0.11101 0.24594 0.28461 -0.063185 0.13878 -0.013788 -0.14625 0.098568 -0.081792 -0.95871 0.11441 0.0015984 -0.049474 -0.1112 -0.65685 -0.80914 -0.10203 -0.18976 -0.023368 0.3075 -0.61289 -0.08985 0.17712 -0.59126 -0.32393 -0.02477 0.14861 0.45466 0.45116 0.18258 0.31841 -0.51705 -0.20387 -0.27539 0.15921 0.40087 -0.30193 -0.17492 -0.27935 0.26315 -0.26156 0.28002 -0.22603 -0.87433 -0.43792 0.64891 0.061804 -0.0016067 -0.63219 -0.58988 -0.13917 -0.082932 0.6012 -0.30623 0.3558 0.88002 0.24999 0.29966 0.50849 0.49321 0.25217 0.50278 0.15 -0.39364 -0.20319 -0.049848 -0.36158 0.26656 -0.008993 -0.10453 -0.079058 0.78508 -0.39508 0.045436 0.11667
avenue -0.10881 0.27733 0.40564 0.24657 -0.41639 -0.071024 -0.45308 -0.25518 -0.10021 0.015592 -0.16156 -0.0059435 0.17326 0.47171 0.0055838 -0.1293 0.16573 -0.22092 -0.30075 -0.22428 -0.082772 -0.27916 -0.18099 0.30956 0.011151 -0.38683 0.91962 0.45239 -0.1018 -0.031419 0.36559 -0.038112 0.22164 -0.19354 -0.47164 -0.45082 0.085444 0.17565 -0.48289 0.22061 -0.082522 0.098854 -0.13287 0.35252 0.37674 0.090307 0.10419 -0.071167 -0.71701 -0.17709 -0.11852 0.24933 0.18344 -0.094038 -0.12187 0.078456 0.15853 0.3874 0.20142 -0.50002 0.26449 -0.16047 0.188 0.34479 0.13181 0.12445 0.14193 -0.47956 -0.7734 -0.0266 -0.2505 0.20576 0.24586 0.50234 -0.24829 0.22326 0.0034237 -0.053047 0.11273 -0.29839 0.10228 -0.061835 0.077121 0.43855 0.4454 -0.070928 -0.018482 -0.020383 0.25638 -0.13638 -0.47317 -0.36107 0.75559 0.21553 0.54519 0.062012 -0.44785 -0.31859 -0.11478 -0.076313
recognition 0.24903 0.57796 0.12351 -0.14004 -0.21393 -0.10891 -0.16295 -0.057683 -0.010862 0.018608 -0.39302 0.1048 0.20321 0.33627 0.16717 0.0039911 -0.36445 -0.38646 -0.21844 -0.10412 0.49775 -0.20881 -0.39974 0.4103 -0.028829 -0.12282 0.5612 -0.33169 0.050739 -0.041111 0.050324 0.51943 -0.30076 -0.059238 -0.43484 -0.37284 -0.30668 0.079602 0.16035 -0.17998 -0.24441 0.02113 0.8358 -0.079309 0.0028566 -0.079262 0.24167 0.46057 -0.41937 0.25788 0.43414 -0.070612 -0.13854 0.70767 -0.31408 -0.19568 -0.0033339 0.11585 -0.28782 -0.30469 0.55967 -0.35962 -0.029245 0.57152 0.029181 -0.25845 -0.058066 0.47667 -0.43786 0.086835 0.34219 -0.44674 0.15505 0.21168 0.018401 0.50091 -0.0026178 0.1702 -0.55827 -0.1552 0.17124 0.1508 -0.22222 0.31723 -0.2447 0.39063 -0.16399 0.2079 0.26478 -0.5578 -0.29029 -0.08778 0.75436 0.096728 0.48936 0.17247 0.084346 -0.28338 0.14863 0.13793
yale 0 0 0 0 0 0 0 0 0 0 0 0 0 0 0 0 0 0 0 0 0 0 0 0 0 0 0 0 0 0 0 0 0 0 0 0 0 0 0 0 0 0 0 0 0 0 0 0 0 0 0 0 0 0 0 0 0 0 0 0 0 0 0 0 0 0 0 0 0 0 0 0 0 0 0 0 0 0 0 0 0 0 0 0 0 0 0 0 0 0 0 0 0 0 0 0 0 0 0 0
seven -0.24723 0.18478 -0.083299 0.56684 0.058433 0.009655 -0.22201 -0.31235 -0.28799 -0.30503 -0.036948 -0.35022 -0.17362 0.22678 0.28793 -0.24747 -0.14376 -0.035082 -0.18953 -0.021745 -0.05343 -0.24775 -0.33704 -0.31428 0.15021 -0.25459 0.22795 0.35863 0.2982 -0.16245 -0.095046 -0.40231 0.3343 -0.45846 -0.52408 -0.36392 0.43271 0.28672 -0.021396 -0.18769 -0.6008 0.17203 0.11077 0.30497 0.13391 -0.3363 0.2594 0.36598 0.093276 0.0092296 0.055776 0.34858 0.13499 0.17629 0.36981 0.25383 -0.12226 -0.18377 -0.125 -0.13277 0.70405 -0.16514 -0.34627 -0.044722 0.095757 0.15696 -0.41527 -0.077791 0.046978 0.020588 -0.43369 -0.087807 -0.0056679 -0.46577 -0.18823 0.42187 -0.13405 0.10964 -0.34176 0.43251 0.15375 0.69162 0.10653 -0.12778 -0.050432 -0.25837 0.1698 0.8823 0.01208 -0.025393 0.2115 -0.46936 0.31824 -0.11336 -0.002359 -0.68587 -0.2192 -0.22985 -0.0048414 0.23393
critic -0.0051504 -0.24093 0.11969 0.19598 -0.32644 0.45835 0.29388 0.299 -0.43786 -0.38585 -0.74823 -0.066818 0.92175 0.46854 0.37233 -0.2518 -0.13153 -0.033507 -0.23672 -0.13519 -0.052488 -0.38366 -0.28349 -0.24784 -0.28272 -0.33314 0.09532 0.09809 0.25009 0.1563 -0.027454 0.026989 -0.32705 0.16115 -0.08618 -0.0173 -0.21096 0.27456 -0.1681 -0.36267 0.0096882 0.73833 -0.36876 -0.48626 -0.21384 -0.2689 0.0085805 0.71784 0.1336 -0.3899 0.40209 -0.073871 -0.44706 0.2411 -0.018101 -0.073862 -0.17071 0.2397 -0.074751 -0.040934 0.51818 0.29018 0.60494 0.095713 0.54192 0.047403 -1.1125 -0.0036328 -0.1886 -0.094538 0.59474 0.20134 1.2348 0.065898 -0.34572 0.33095 -0.22702 0.53073 0.45815 0.0017894 -0.055949 -0.13282 0.015173 0.70489 -0.069498 0.22627 -0.38376 0.23846 -0.082071 -0.80116 0.076695 -0.39756 -0.11094 -0.029377 0.0070685 0.033943 0.0040807 0.27188 0.317 0.051015
precedent 0.2909 -0.20089 0.34174 0.22312 -0.059617 0.12072 -0.28028 -0.062926 0.11215 -0.34391 -0.64217 0.18472 0.16829 0.3942 -0.11636 -0.10068 -0.18076 -0.75337 -0.092045 0.14517 -0.18576 -0.30172 -0.20796 0.17514 0.061672 0.40345 0.35184 -0.10973 -0.34192 0.087642 0.088003 -0.42356 0.23237 -0.11913 -0.43894 -0.52159 -0.035238 -0.2065 -0.3254 0.028643 -0.53229 -0.018404 -0.069668 0.030281 0.073315 -0.1034 0.2694 0.36152 -0.32778 0.24633 0.25032 -0.34084 -0.27605 0.38652 -0.10521 -0.28579 -0.068171 0.22944 0.18543 0.089166 0.56077 -0.046881 -0.13586 0.26283 0.3299 -0.23667 -0.57253 -0.46493 -0.64571 0.056197 -0.0056532 -0.48423 0.61936 0.45856 0.36142 0.28459 0.056828 0.34449 0.32922 0.079906 0.04866 0.075549 0.24782 0.60546 -0.082742 0.0117 0.013475 0.25354 0.57075 0.040112 0.00066638 -0.21514 0.30747 -0.20763 0.13489 -0.19198 0.37169 -0.24584 0.37012 -0.064113
interest -0.33241 -0.35532 0.34123 -0.2539 -0.66425 -0.24096 -0.39293 -0.60945 0.057299 -0.062935 -0.11203 0.2524 0.28372 -0.1141 -0.08077 -0.33809 -0.33127 -0.37485 -0.018573 -0.61872 0.11636 0.29871 -0.41015 0.070671 0.045271 0.070781 0.58999 0.28151 -0.38365 0.069703 -0.2189 0.058782 -0.33378 0.28973 0.076466 -0.76821 -0.44525 -0.239 -0.36937 -0.014895 -0.087556 -0.12351 0.14674 0.17481 0.038561 -0.39265 0.16391 0.58331 0.025062 0.46168 0.23949 0.11053 -0.11455 0.19898 -0.30199 0.19116 0.14612 0.43471 0.57675 -0.19451 0.13955 -0.10589 0.45555 -0.22324 0.37675 0.1414 -0.33207 -0.68034 0.057854 0.16213 0.44477 -0.52109 0.21801 0.16628 0.065714 0.50861 0.1174 0.39646 -0.56668 0.76475 0.37109 -0.17723 0.2807 0.1021 0.080595 0.51377 -0.27816 0.18386 0.043405 -0.32786 -0.01909 -0.22698 0.12156 0.1 0.021615 -0.16555 0.0018688 -0.14526 -0.38793 -0.27482
calculation -0.13122 -0.49531 0.23873 -0.47425 -0.0021082 -0.34674 -0.28763 0.11709 0.20085 -0.33047 -0.25714 0.04182 -0.04962 -0.10927 0.40251 0.071371 -0.25983 -0.66108 0.18846 -0.24757 0.34947 0.10362 -0.059986 -0.085182 -0.11661 -0.086835 0.72949 0.37887 -0.58134 0.38652 0.31761 0.28735 -0.53224 0.25725 -0.10866 -0.088123 0.069493 -0.17493 0.16411 0.034304 -0.49434 0.0023815 0.46958 -0.21558 0.096289 0.20145 0.013769 0.18726 -0.08948 0.18183 0.26188 -0.29006 0.029957 0.39833 0.39861 0.023769 0.061481 -0.066926 0.31141 0.091233 0.35431 0.011911 0.21387 -0.035554 0.038604 -0.20074 0.044821 -0.159 -0.069105 0.43041 -0.18057 -0.085507 0.49643 -0.18985 -0.026224 0.2374 -0.11169 -0.20014 -0.35585 0.57209 0.30109 0.15907 0.73465 0.39769 0.38236 0.27011 -0.37695 0.41315 0.13089 0.072177 0.096431 0.15112 0.19584 -0.11675 0.042146 -0.31881 0.038702 -0.20764 0.53963 -0.12031
performance -0.15691 -0.29099 -0.2167 -0.05198 0.42767 -0.52537 -0.25411 -0.046327 0.1678 -0.010499 -0.16118 -0.17155 0.45216 -0.024162 0.33167 -0.30123 -0.16666 -0.48907 0.078617 0.18889 0.19049 -0.056715 -0.059229 0.080925 -0.45894 -0.43394 0.24815 -0.001355 -0.11692 0.38612 -0.17581 -0.17261 0.36982 0.18245 -0.46457 0.20758 -0.27438 -0.29442 -0.084539 -0.056171 -0.19916 0.59154 0.1759 0.14656 -0.061741 -0.14914 -0.31316 0.25496 -0.056073 0.34354 0.7786 0.035931 0.20195 0.44994 0.14072 0.059275 0.27227 -0.037309 0.21508 -0.22871 0.76939 -0.1519 -0.21013 0.50966 0.12772 -0.032946 -0.026328 0.32833 0.15576 -0.10946 0.34167 -0.43575 0.4085 -0.20159 -0.19962 0.051189 0.71775 -0.15972 -0.57914 0.33511 0.15722 0.10077 0.34314 0.52647 -0.061218 0.60697 -0.4405 0.22114 -0.10368 -0.21353 0.15581 0.034556 0.34335 0.0628 0.56459 -0.25335 -0.47779 -0.0714 0.048552 -0.017773
hike -0.28876 -0.44671 0.2947 0.5979 0.33687 -0.37671 -0.48977 -0.29566 -0.24431 -0.50655 -0.28054 0.24098 -0.017199 -0.02553 0.20764 -0.55929 0.25506 -0.94698 -0.54938 -0.75888 0.042315 0.068109 0.072366 0.29657 -0.33971 -0.082346 0.84528 0.39199 0.21886 0.082804 0.02338 0.40255 -0.43317 0.43422 0.37093 -0.10609 0.47506 0.053498 -0.53495 0.45941 -0.31581 0.24739 0.35779 -0.40635 0.27948 -0.061986 -0.71731 0.53189 0.37383 -0.085233 -0.30334 -0.12527 -0.085234 0.11211 0.04157 -0.16115 -0.50411 0.67111 0.17417 -0.18195 -0.094831 -0.12088 -0.11109 0.12072 0.17683 0.14358 -0.0015964 -0.75596 0.019616 0.41932 0.09654 -0.15354 0.49093 0.06829 0.057457 -0.056013 -0.13313 0.02625 -0.062503 0.72434 -0.22722 -0.2156 -0.16216 -0.027213 0.20407 0.21266 -0.12025 0.47181 -0.23236 0.087935 -0.16112 -0.31363 -0.27817 -0.78739 -0.025707 -0.3261 -0.10028 -0.39133 -0.30211 -0.39582
center -0.20363 -0.2836 -0.30598 0.5721 0.32636 -0.044278 0.10196 -0.20264 -0.1538 -0.044108 -0.66075 0.073386 -0.31065 0.012865 -0.031685 0.28104 0.27326 -0.22004 -0.59181 0.016955 0.076721 -0.16558 -0.030762 -0.64095 0.48951 -0.60269 0.52265 0.26519 0.13984 0.13488 -0.28549 0.25013 0.21713 0.32345 -0.65459 -0.57372 0.16191 0.33143 -0.13794 -0.081552 -0.85215 0.26612 -0.46291 0.092419 0.36719 -0.080969 0.46369 0.2106 -0.19572 0.20991 0.36808 -0.059385 -0.22253 0.25716 -0.32705 -0.10584 0.19714 -0.36169 0.061895 -0.11613 0.21941 0.088716 0.045122 -0.25459 0.092694 -0.21749 -0.22397 0.33119 -0.12484 -0.34896 0.33959 0.6788 0.43245 -0.2083 -0.51309 0.0066024 0.30548 0.018271 0.45413 -0.57728 0.030617 0.0065699 -0.16001 -0.16248 0.50798 -0.096217 -0.29696 0.12654 0.19242 -0.074495 -0.011164 -0.12632 0.27299 -0.0082905 -0.11848 0.39794 -0.10862 -0.40266 0.20842 -0.073613
history -0.065715 -0.21352 0.60369 0.16942 -0.41123 0.16663 0.020627 -0.20146 -0.33158 -0.19645 -0.37437 0.39237 0.042256 0.018531 0.081117 -0.61012 0.056542 -0.49382 -0.024154 -0.040764 -0.029621 0.043693 -0.65521 0.078131 -0.045386 -0.1439 -0.26583 0.12716 -0.34459 0.27093 0.053374 0.033231 -0.078938 0.10829 -0.41413 -0.48848 0.038891 -0.059286 0.17443 -0.21719 -0.35725 0.21182 0.18148 0.079568 -0.16774 -0.092426 0.41215 0.60845 0.014147 0.23417 0.68975 -0.099294 -0.10623 0.40353 -0.042758 0.20354 0.1779 -0.15646 -0.24003 -0.16257 0.43685 0.56284 0.16494 -0.1471 0.62771 -0.22924 -0.025089 -0.12481 -0.27416 0.37677 0.34493 0.21068 0.56871 -0.048658 0.23004 0.16208 -0.41558 0.13751 0.13844 -0.29619 -0.18422 0.2714 0.39369 0.40798 0.33117 -0.06369 0.055593 0.37168 0.20624 0.039013 0.03076 -0.1378 0.48357 -0.11294 0.088574 -0.081299 0.16674 -0.07316 -0.15446 0.65433
volunteer -0.41315 0.59029 0.11481 0.34678 0.30612 -0.063822 0.27203 -0.42756 0.29007 0.45352 -0.53576 0.66572 -0.012082 0.10019 0.61322 0.06114 -0.26893 0.031764 0.2314 -0.090601 0.018486 0.14791 -0.083532 -0.10563 -0.2781 -0.24333 0.57396 0.21085 0.17755 0.40674 0.2147 0.18669 0.25438 0.12016 -0.20364 -0.71701 0.037734 0.65263 -0.17993 0.23222 -0.43855 0.80732 0.3527 -0.098738 0.49414 -0.14494 -0.0022346 0.097098 -0.36437 -0.16961 -0.04836 -0.3203 -0.22148 0.35074 -0.67421 -0.00024022 0.10942 0.31751 -0.091187 -0.24738 0.46857 -0.40791 -0.027301 -0.063513 0.21328 -0.34337 -0.14768 0.032731 -0.085125 -0.019719 0.19011 -0.0080527 0.56024 -0.058329 -0.20945 0.30714 -0.25329 0.10462 -0.34311 -0.17338 -0.013823 0.22462 0.12799 -0.44118 -0.0090443 -0.51241 -0.17966 -0.069883 0.26153 0.29521 -0.010034 -0.34743 -0.5298 0.26067 0.20632 0.078165 -0.62938 -0.77438 -0.53115 -0.18581
death -0.33759 0.78847 0.91769 0.76278 -0.27141 -0.59965 -0.3124 0.14019 0.22545 0.04041 -0.44181 -0.54351 0.27137 0.24573 0.052956 -0.25546 -0.42447 -0.4699 0.0093788 -0.38277 0.1417 -0.26168 0.040598 0.49599 -0.22783 -0.069624 0.42132 0.77785 0.0052614 0.071108 -0.33492 0.12984 -0.33739 -0.020407 -0.29818 0.04997 0.16204 0.010379 -0.14115 -0.30144 -0.052146 0.29604 -0.085044 0.13184 -0.12522 -0.23133 -0.020277 0.46742 0.21108 0.47177 -0.14186 0.20251 0.2602 0.17873 -0.35054 0.11596 -0.36284 0.029211 0.12809 0.041236 0.76369 0.22246 -0.22108 0.13289 0.96947 -0.40899 0.0024537 -0.30289 -0.21886 -0.051691 0.11231 0.33732 0.2771 -0.2919 -0.068173 0.63211 -0.41358 0.36696 0.35298 0.39337 0.068596 -0.39721 0.092702 0.38168 0.092882 0.45119 0.1756 0.093502 0.12229 0.014346 -0.067018 0.054018 0.093311 -0.59469 -0.14552 -0.071511 0.068691 -0.16641 -0.37844 -0.34548
man -0.4872 -0.097722 0.54838 0.47024 -0.10336 -0.25478 -0.38295 -0.031315 -0.053032 0.48904 -0.48107 0.15764 0.019297 0.66561 0.58355 -0.20748 0.1956 0.18774 -0.065731 -0.12257 -0.12856 -0.26171 0.032822 -0.06147 0.10038 0.039612 0.5157 0.3287 0.32806 0.22239 0.34813 -0.46638 -0.10269 -0.36436 -0.25118 -0.15674 -0.33734 0.32129 0.098563 -0.43442 -0.3247 0.14293 -0.1784 0.022659 0.1974 0.5493 -0.27025 0.12097 0.015977 -0.27832 -0.010321 0.036325 0.2732 0.2153 -0.31314 -0.12905 -0.15412 -0.070326 -0.47139 0.37555 0.19536 0.08856 0.14886 0.040803 0.83674 -0.71463 -0.099217 0.015071 -0.44946 -0.34074 0.21533 0.074346 0.50336 -0.058426 -0.25031 0.45038 -0.20197 0.13991 0.011763 -0.10201 0.055656 -0.0057384 0.5894 0.30142 0.32705 0.41954 -0.040257 0.048619 -0.42268 0.20679 0.13962 -0.27099 0.3755 0.13376 -0.11591 0.011656 -0.33897 -0.25433 -0.35044 0.11248
metal -0.22001 0.18805 -0.53446 0.22268 -0.014373 -0.19422 -0.01175 -0.067968 0.32071 0.06021 -0.41727 -0.0012945 0.33219 0.18813 -0.6625 -0.87254 0.21942 0.075955 -0.62793 -0.62815 -0.066562 -0.037875 0.11161 0.25563 0.26532 -0.34822 0.54318 0.16818 -0.37528 0.27347 -0.76921 -0.24946 -0.021195 0.084392 -0.27134 0.36769 0.12376 -0.24236 9.2572e-05 -0.36482 0.3069 0.17435 0.30656 0.24512 0.27087 -0.042958 0.18106 0.37133 -0.4131 0.1083 0.079467 -0.18395 -0.29107 0.42348 -0.058818 0.21189 -0.02711 -0.20956 -0.10519 0.58514 -0.25561 0.22895 0.18802 0.32328 0.13671 -0.083571 0.41414 -0.20759 -0.21187 -0.64419 -0.3481 -0.34728 0.23588 -0.47157 -0.7377 0.22476 -0.43681 -0.17059 -0.34417 -0.10273 0.18181 -0.49419 0.39226 0.28023 0.7112 0.48459 -0.50997 0.60095 0.018429 0.30048 -0.48857 -0.77945 -0.1319 -0.17689 0.48605 -0.062019 -0.7127 -0.42194 0.18427 0.29605
tool 0.099168 -0.17731 -0.057556 -0.33566 -0.46652 0.36529 -0.17952 -0.10377 0.42518 0.43223 -0.4107 0.52572 0.22323 0.24323 0.58321 0.080967 -0.12974 -0.48026 0.059183 0.30891 0.078985 -0.15091 -0.17864 0.19716 0.011845 -0.049711 0.86116 0.29503 -0.3486 0.50951 0.22392 0.27811 -0.1597 0.30679 0.1831 -0.091004 -0.58497 -0.33915 -0.15294 -0.36795 -0.36922 0.3398 0.27785 0.0056934 0.59804 0.22556 0.14777 -0.028029 -0.52778 0.18508 0.15958 -0.51986 0.029271 0.61005 -0.087221 0.035338 0.15646 -0.30668 -0.36207 0.11384 0.26859 -0.017325 0.047895 -0.085667 -0.20043 -0.20649 -0.19654 -0.06918 -0.27102 -0.21122 0.50325 -0.283 0.32431 -0.12176 -0.60813 0.071952 -0.06868 0.23672 0.088234 -0.28321 0.18855 0.020317 0.57158 0.41984 0.28005 -0.29229 -0.46756 0.22484 0.48313 0.10396 0.068558 -0.43807 0.20757 0.13554 -0.11487 -0.094712 0.041318 -0.75612 0.70297 0.19337
minority -0.30281 0.2481 -0.22554 0.31015 -0.48407 -0.62015 -0.77383 -0.54826 0.22551 -0.17494 0.050364 0.58695 -0.00033095 -0.038648 0.40622 -0.46 0.040334 0.0098947 -0.5841 -0.45449 -0.048144 0.25097 -0.14969 -0.18509 0.013119 0.49315 0.2635 -0.56327 -0.11945 0.18945 0.014673 0.31413 -0.2908 -0.36134 -0.060409 -0.7808 0.18096 -0.20331 0.073386 0.14589 -0.31945 -0.22943 0.24195 0.10634 0.0073137 -0.63699 0.10095 0.092644 -0.4943 -0.38566 0.33663 -0.49616 -0.34709 0.043334 -0.46589 0.35332 -0.18148 -0.02398 0.10075 0.13626 0.83527 -0.16068 -0.29823 -0.087831 0.55873 -0.63528 -0.58938 -0.41078 -0.26495 -0.021524 0.038422 -0.2441 0.448 -0.098185 -0.32725 0.29209 0.19223 0.42871 -0.070312 -0.13622 0.10455 0.21285 -0.62915 0.20519 -0.048907 0.31137 0.059226 -0.45005 0.18758 0.11587 0.066841 -0.34073 -0.34339 0.41037 -0.10094 0.14765 0.31463 -0.6068 0.70685 0.047052
library -0.27831 0.13153 0.096083 0.30602 -0.28234 0.82709 0.038086 0.047818 -0.25308 -0.31365 0.0029855 0.27115 0.59013 0.20773 -0.056548 -0.50236 -0.030944 -0.6915 0.20458 -0.17238 0.11299 -0.075079 -0.20783 -0.28332 0.1384 -0.6266 0.2699 0.18593 0.34893 -0.151 -0.21942 0.4144 0.26493 -0.011067 -0.21872 -0.17699 -0.24384 0.0036538 0.2371 0.088531 -0.11825 0.015217 0.49868 -0.058877 0.51018 -0.70762 0.3888 0.25899 -0.15291 -0.083448 0.32173 -0.33711 0.3202 0.33141 -0.25918 0.20404 -0.52552 -0.33346 -0.31746 -0.1334 0.5315 -0.54928 0.5042 -0.39236 0.30352 -0.51258 0.22554 0.22654 -0.51412 -0.30994 0.24181 0.20981 0.30642 0.065893 -0.45119 0.11981 -0.53343 0.24202 -0.040252 -0.15549 0.20256 -0.10394 0.82423 -0.059709 0.44632 -0.16461 -0.66531 0.13368 0.25787 -0.10717 -0.29593 -0.52307 -0.003504 0.0075754 0.21903 0.099475 -0.26708 -0.24479 -0.1661 -0.12192
arrangement -0.080169 -0.3066 -0.088587 0.15643 0.096525 -0.085085 -0.2172 -0.43726 0.27558 -0.20648 0.32054 0.38384 0.14487 0.37548 0.038212 -0.047427 -0.14287 -0.43807 -0.45019 -0.12944 0.025444 0.038202 -0.2712 0.10755 0.1676 -0.0073617 -0.2192 -0.32881 -0.21696 -0.034325 0.19902 -0.36083 0.099368 -0.10971 -0.26918 0.049233 -0.07547 0.10113 0.21294 0.41893 -0.082825 0.36966 0.23335 0.056949 0.00023417 0.37846 0.099485 0.39915 -0.39807 0.58723 0.13919 -0.09787 0.27555 0.38633 -0.23925 -0.091181 0.011313 0.40906 0.23163 -0.014503 0.53096 -0.26703 -0.078861 0.32266 -0.033621 -0.012448 -0.25993 -0.22583 -0.43283 -0.11894 0.063077 -0.02943 0.50225 0.059732 -0.10759 0.38382 -0.37138 0.34572 -0.12487 0.48285 0.73483 0.17279 0.35332 0.38734 0.22943 0.10075 -0.38525 -0.0041189 -0.040165 -0.12709 -0.25696 0.15413 0.48054 0.18351 0.39978 0.37173 -0.051054 -0.09244 0.32352 -0.87281
payment -0.26938 -0.49191 -0.0094352 0.059816 -0.24806 -0.21173 -0.24835 -0.036963 0.50473 -0.30898 -0.10638 0.17346 -0.14729 0.25168 -0.17394 -0.15437 -0.14004 -0.56037 -0.23287 -0.61101 0.20972 0.014093 -0.18378 0.30417 -0.18973 -0.36375 0.37712 -0.037275 -0.25098 -0.13481 0.0029732 0.50665 -0.041684 0.1909 0.14529 -0.34618 -0.074499 0.057224 0.52964 0.2028 -0.10217 0.60553 0.60121 -0.21233 -0.30418 -0.25304 -0.24322 0.36051 0.082263 0.55701 0.47108 -0.17946 0.40899 -0.064814 -0.40816 0.16244 -0.11491 0.29135 -0.34677 -0.2785 0.65764 0.14941 0.017072 0.040716 0.22819 -0.10782 0.14702 -0.47668 -0.20688 -0.029998 0.026536 -0.32683 -0.24436 0.25892 -0.44699 0.29114 -0.3816 0.16449 -0.4906 1.3352 0.70926 0.22781 0.37913 0.59874 0.05627 0.15384 -0.034492 0.49872 0.36166 -0.3122 -0.45361 0.055975 -0.42513 0.18394 0.11673 0.092715 -0.154 -0.69286 0.060923 -0.60171
mile -0.048561 0.18924 0.62345 0.15347 0.010116 -0.21324 -0.76104 0.076681 -0.13931 -0.070163 -0.54398 0.18403 -0.82822 0.40268 -0.057924 -0.55627 0.57198 -0.50633 -0.27422 -0.98932 -0.016327 -0.018723 -0.70564 -0.17343 0.21597 -0.77351 0.76382 0.19373 0.079056 0.45067 0.07122 0.24193 0.32499 0.40834 -0.6511 -0.16139 0.24034 -0.24587 -0.25492 0.90575 -0.76019 0.015479 -0.0084558 0.30117 0.72144 0.024524 -0.31657 0.12842 -0.099834 -0.44765 -0.043294 0.42284 -0.15815 0.051841 -0.03669 0.26622 -0.068957 0.35584 -0.092354 -0.34384 -0.015335 0.62656 0.45643 0.097058 0.31865 -0.29627 -0.078978 0.12649 -0.56772 0.1301 -0.48462 -0.36753 0.012491 -0.21988 -0.46933 -0.36059 -0.26698 -0.69794 -0.30932 0.092431 -0.42441 -0.08268 0.28641 -0.15458 0.5382 -0.1008 0.032919 0.43772 -0.22761 0.23079 -0.14512 -0.15287 0.2185 -0.64743 0.5309 0.0013937 -0.27069 0.029172 0.10984 -0.40072
opec 0 0 0 0 0 0 0 0 0 0 0 0 0 0 0 0 0 0 0 0 0 0 0 0 0 0 0 0 0 0 0 0 0 0 0 0 0 0 0 0 0 0 0 0 0 0 0 0 0 0 0 0 0 0 0 0 0 0 0 0 0 0 0 0 0 0 0 0 0 0 0 0 0 0 0 0 0 0 0 0 0 0 0 0 0 0 0 0 0 0 0 0 0 0 0 0 0 0 0 0
place 0.22993 -0.38703 0.19652 0.27138 -0.26887 -0.25841 -0.22702 -0.19348 0.11008 -0.21335 -0.088593 -0.076225 -0.028402 0.16372 0.22467 0.16155 -0.064605 -0.49954 -0.29829 0.032349 -0.22353 0.2618 0.028859 0.2715 0.15266 -0.21574 0.0867 0.067861 0.40042 0.60128 -0.039015 0.23894 0.17513 -0.31006 -0.779 0.17983 0.21949 -0.064177 0.0027215 0.041457 -0.16655 0.028335 0.18678 0.30997 0.38789 -0.062766 0.14163 0.38359 -0.41966 0.083982 0.040449 -0.38256 0.017178 0.15919 -0.058721 0.13213 -0.082817 -0.073384 -0.19527 0.21542 0.5574 -0.20046 0.29817 0.13904 0.1479 0.04682 -0.10751 -0.09117 -0.39506 0.0093446 -0.01605 0.2202 0.16418 0.16037 -0.16419 0.24136 0.31902 0.30661 0.40069 0.065074 -0.2111 0.41558 0.42129 0.12239 0.30842 0.107 -0.18273 0.17074 0.049327 0.027814 0.24542 -0.14508 0.43552 -0.13414 -0.0078095 -0.02639 -0.32141 -0.3785 -0.046571 -0.1117
team -0.27525 -0.28072 0.07417 0.18712 0.33716 -0.051737 -0.011673 -0.3214 -0.095553 0.40802 -0.70887 0.23415 -0.22262 -0.018277 0.42764 -0.22516 0.0016358 -0.25458 -0.05334 0.33001 0.049718 -0.20854 -0.40738 -0.053064 0.1074 -0.21417 -0.07862 -0.096025 0.09224 0.52454 -0.16187 -0.4412 0.066818 -0.40755 -0.10126 -0.31225 -0.14288 0.037729 -0.20992 -0.27041 -0.56515 0.53639 0.023127 0.33019 0.33416 -0.033063 0.16104 0.082432 -0.35811 0.11881 0.49706 -0.24741 -0.23921 0.4292 -0.49491 -0.013388 0.30879 -0.20548 -0.20657 -0.070082 0.31254 -0.10519 0.10316 0.28618 0.076512 -0.44422 0.018624 -0.18994 0.022664 0.21149 0.10222 0.17299 0.30499 -0.25651 -0.018041 0.088435 0.28835 0.41133 -0.27867 0.48218 -0.0070877 0.10372 0.43946 -0.097075 0.24224 -0.32975 -0.41586 0.58642 -0.076411 0.12696 0.037181 0.033791 0.3928 0.13554 -0.12155 -0.19537 -0.099404 0.17807 -0.066316 0.042298
drug -0.33714 0.14359 -0.13214 0.03777 -0.095775 0.15289 -0.43555 0.19946 0.1924 -0.21176 -0.8179 0.21099 -0.227 -0.017234 0.32948 0.12963 -0.25284 0.28422 -0.38701 0.16077 0.11906 0.055979 -0.18555 0.97695 0.15527 -0.20249 0.66016 0.90626 -0.37149 -0.27892 -0.24364 0.43384 0.4052 0.017393 -0.13011 -0.31528 0.43005 -0.052512 -0.30082 -0.34346 -0.35336 0.34617 -0.5761 -0.11014 0.21426 -0.41133 0.081451 0.78051 0.081306 0.28842 0.15919 0.067128 0.36829 0.074337 0.12552 0.78362 0.72208 -0.30856 -0.27738 0.4663 0.44887 0.12586 0.00023903 0.49048 0.51602 -0.32586 -0.27673 -0.49644 -0.83734 -0.42289 0.55211 0.36749 0.18531 -0.23605 0.082726 0.18176 0.34802 0.51185 -0.37494 0.098169 0.3617 -0.40992 0.44627 -0.087138 -0.36511 -0.070264 0.73057 0.022655 0.41905 0.28963 -0.30263 -0.39272 0.072858 0.10486 -0.53177 0.22688 0.12636 -0.35378 0.69217 -0.077996
minister -0.24703 -0.061135 -0.19976 -0.27713 0.76662 -0.45336 0.38233 -0.071145 0.40041 0.18386 -0.47776 0.22837 -0.37889 0.6787 0.43563 -0.34592 0.29883 0.036716 -0.45774 -0.17369 -0.23366 -0.349 -0.19297 0.38279 0.29568 0.021486 0.058907 0.17817 0.45057 -0.16032 -0.44462 -0.2148 -0.20385 -0.078607 -0.71053 -0.84793 -0.35846 -0.19872 0.68858 -0.15885 -0.36556 -0.18806 0.076303 0.033773 -0.4311 0.2695 0.13955 0.20651 0.40708 -0.032293 -0.51647 -0.66428 -0.25708 0.049467 0.32228 -0.75592 -0.16581 0.4777 0.20544 -0.17999 0.95892 0.033594 -0.023893 -0.029341 0.59553 0.032969 -0.78534 -0.60699 -0.0078059 -0.82546 0.25486 0.82618 0.53077 0.19402 -0.40486 0.34773 -0.18641 0.6826 0.33861 0.32278 0.34945 -0.21472 -0.39464 0.26762 0.18072 -0.0045198 -1.1042 -0.025312 -0.58034 0.20346 0.314 -0.023512 0.3643 0.016334 0.060149 -0.062456 0.048739 -0.098409 0.26759 -0.13323
hardware 0.060599 0.044896 -0.30998 -0.20675 0.030801 0.54332 0.071236 -0.18388 0.28414 -0.19132 -0.52253 0.17607 0.11173 0.27194 0.098018 -0.40607 0.23425 -0.26054 -0.17864 -0.30629 0.28357 0.11156 -0.53503 0.10388 0.16874 -0.67086 0.51291 -0.123 -0.084846 0.21533 0.080956 0.38507 0.03749 0.32793 0.34266 -0.31188 -0.31686 -0.10368 0.70671 -0.26249 -0.081123 0.22995 0.47307 0.47155 0.49558 -0.37624 0.45495 0.12598 -0.20399 0.20062 0.18113 0.032146 0.052471 0.2667 -0.060505 0.21067 0.24615 -0.67603 -0.43382 0.20303 0.063128 -0.3547 0.085739 -0.064641 -0.1509 -0.057023 -0.0021672 -0.034156 -0.15031 -0.75895 0.0096102 -0.03192 0.021183 0.33998 -0.58913 0.19593 0.18111 -0.39458 -0.45544 0.303 0.66061 -0.044203 0.48524 0.37274 -0.05136 0.24494 -0.48056 0.49107 0.22618 -0.0079178 0.067598 -0.59057 0.64682 0.052212 0.073957 0.14312 -0.036961 -0.36095 0.84436 0.27593
